{"learner":{"attributes":{"scikit_learn":"{\"_estimator_type\": \"regressor\"}"},"feature_names":["Manufacturer","Model","Category","Leather interior","Fuel type","Mileage","Gear box type","Drive wheels","Wheel","Color","Levy","Engine volume","Cylinders","Airbags","Age"],"feature_types":["int","int","int","int","int","int","int","int","int","int","int","float","float","int","int"],"gradient_booster":{"model":{"gbtree_model_param":{"num_parallel_tree":"1","num_trees":"100"},"iteration_indptr":[0,1,2,3,4,5,6,7,8,9,10,11,12,13,14,15,16,17,18,19,20,21,22,23,24,25,26,27,28,29,30,31,32,33,34,35,36,37,38,39,40,41,42,43,44,45,46,47,48,49,50,51,52,53,54,55,56,57,58,59,60,61,62,63,64,65,66,67,68,69,70,71,72,73,74,75,76,77,78,79,80,81,82,83,84,85,86,87,88,89,90,91,92,93,94,95,96,97,98,99,100],"tree_info":[0,0,0,0,0,0,0,0,0,0,0,0,0,0,0,0,0,0,0,0,0,0,0,0,0,0,0,0,0,0,0,0,0,0,0,0,0,0,0,0,0,0,0,0,0,0,0,0,0,0,0,0,0,0,0,0,0,0,0,0,0,0,0,0,0,0,0,0,0,0,0,0,0,0,0,0,0,0,0,0,0,0,0,0,0,0,0,0,0,0,0,0,0,0,0,0,0,0,0,0],"trees":[{"base_weights":[6.8358546E-5,7.8452544E3,-1.7862183E3,1.5690899E4,2.2973945E3,-3.0863486E3,2.9672449E3,1.668223E4,-6.6732173E3,5.0402227E3,-1.4674431E3,-8.2914746E2,-7.7383843E3,5.137232E3,-3.099781E3,5.3598276E3,1.7689205E4,-9.302709E3,6.676275E3,2.7744265E3,7.292397E3,-5.128863E3,3.3631292E3,-6.9857397E3,1.3239924E3,5.369151E3,-8.6244375E3,2.8010732E3,7.5385312E3,-4.3855588E2,-5.6441353E3,4.736089E3,4.43381E3,1.1340846E4,1.8716629E4,-9.722966E2,-1.1117901E4,9.416582E2,8.78179E3,3.23364E3,-5.423487E3,9.607537E3,5.652243E3,-4.0669568E3,-7.2232134E3,-4.6880396E3,4.0184897E3,-2.2242886E3,-8.96299E3,3.286678E3,-3.7175037E3,7.6881445E3,-1.784961E3,1.6576829E3,-9.368555E3,3.75439E3,-2.437668E3,1.1473647E4,5.9958213E3,-3.2385398E3,1.0359417E3,-3.6143376E3,-6.7527627E3,1.3391646E2,1.745969E3,3.911393E3,1.2399094E3,5.147768E3,6.6243213E3,-1.6580656E3,1.1476097E3,-1.2530254E2,-3.5871638E3,-2.3326904E1,4.4707312E2,3.2107847E3,1.647731E2,-3.7838046E2,1.154604E3,2.8539976E3,-2.2834954E3,-1.9572818E2,2.9882861E3,2.922209E3,1.446483E3,1.2232847E3,-1.262222E3,-2.2234795E3,4.3919748E2,-1.1274305E2,-1.7679786E3,5.318121E2,1.7502567E3,3.8153767E1,-1.8797203E3,2.3044205E2,-2.884234E3,1.4579397E3,-2.2440045E2,-7.282183E2,-2.5091099E3,4.41576E3,1.8826088E3,-1.8906572E3,2.1481364E2,1.1830125E3,-2.9854074E2,-1.964649E3,-2.9745054E3,6.552637E2,1.5714326E3,-8.358547E1,-1.2158575E3,4.532468E3,3.0329807E3,4.7408936E3,1.4809016E3,-1.6909319E3,-9.0171136E2,6.6608093E2,-2.580854E2,-1.2548605E3,-2.3759526E2,-2.2327383E3,-1.5093566E3],"categories":[],"categories_nodes":[],"categories_segments":[],"categories_sizes":[],"default_left":[0,0,0,0,0,0,0,0,0,0,0,0,0,0,0,0,0,0,0,0,0,0,0,0,0,0,0,0,0,0,0,0,0,0,0,0,0,0,0,0,0,0,0,0,0,0,0,0,0,0,0,0,0,0,0,0,0,0,0,0,0,0,0,0,0,0,0,0,0,0,0,0,0,0,0,0,0,0,0,0,0,0,0,0,0,0,0,0,0,0,0,0,0,0,0,0,0,0,0,0,0,0,0,0,0,0,0,0,0,0,0,0,0,0,0,0,0,0,0,0,0,0,0,0,0],"id":0,"left_children":[1,3,5,7,9,11,13,15,17,19,21,23,25,27,29,31,33,35,37,39,41,43,45,47,49,51,53,55,57,59,61,63,-1,65,67,69,71,73,75,77,79,81,83,85,87,89,91,93,95,97,99,101,103,105,107,109,111,113,115,117,119,121,123,-1,-1,-1,-1,-1,-1,-1,-1,-1,-1,-1,-1,-1,-1,-1,-1,-1,-1,-1,-1,-1,-1,-1,-1,-1,-1,-1,-1,-1,-1,-1,-1,-1,-1,-1,-1,-1,-1,-1,-1,-1,-1,-1,-1,-1,-1,-1,-1,-1,-1,-1,-1,-1,-1,-1,-1,-1,-1,-1,-1,-1,-1],"loss_changes":[1.6457263E11,9.476475E10,5.912821E10,2.010887E10,1.3194086E10,7.8873936E10,2.7070757E10,9.755984E9,1.4311004E9,3.7508608E9,9.550409E9,6.7071377E10,2.8547006E10,8.47215E9,3.66746E9,3.5302733E8,4.9600594E9,4.8819302E8,7.625082E7,1.4104361E9,1.350654E9,6.533924E8,1.2482445E9,1.2322583E10,3.7108093E10,2.601816E9,1.760541E10,3.8496763E9,4.459979E9,1.1015544E9,5.9892326E8,3.1819776E8,0E0,1.3283973E9,3.189375E9,1.7410197E8,2.3748762E8,1.793584E6,7.31881E7,9.7521075E8,7.2609594E8,5.576571E8,6.967593E8,2.5280026E8,1.7777664E8,9.133475E7,8.704338E8,3.669082E9,5.8746634E9,1.7134283E10,6.2794957E9,1.0797665E9,4.4511987E8,9.498342E8,3.2387072E9,1.505195E9,4.138565E8,8.831672E8,5.5120835E9,3.4423616E7,3.9491706E8,1.5714662E8,1.7390643E8,0E0,0E0,0E0,0E0,0E0,0E0,0E0,0E0,0E0,0E0,0E0,0E0,0E0,0E0,0E0,0E0,0E0,0E0,0E0,0E0,0E0,0E0,0E0,0E0,0E0,0E0,0E0,0E0,0E0,0E0,0E0,0E0,0E0,0E0,0E0,0E0,0E0,0E0,0E0,0E0,0E0,0E0,0E0,0E0,0E0,0E0,0E0,0E0,0E0,0E0,0E0,0E0,0E0,0E0,0E0,0E0,0E0,0E0,0E0,0E0,0E0,0E0],"parents":[2147483647,0,0,1,1,2,2,3,3,4,4,5,5,6,6,7,7,8,8,9,9,10,10,11,11,12,12,13,13,14,14,15,15,16,16,17,17,18,18,19,19,20,20,21,21,22,22,23,23,24,24,25,25,26,26,27,27,28,28,29,29,30,30,31,31,33,33,34,34,35,35,36,36,37,37,38,38,39,39,40,40,41,41,42,42,43,43,44,44,45,45,46,46,47,47,48,48,49,49,50,50,51,51,52,52,53,53,54,54,55,55,56,56,57,57,58,58,59,59,60,60,61,61,62,62],"right_children":[2,4,6,8,10,12,14,16,18,20,22,24,26,28,30,32,34,36,38,40,42,44,46,48,50,52,54,56,58,60,62,64,-1,66,68,70,72,74,76,78,80,82,84,86,88,90,92,94,96,98,100,102,104,106,108,110,112,114,116,118,120,122,124,-1,-1,-1,-1,-1,-1,-1,-1,-1,-1,-1,-1,-1,-1,-1,-1,-1,-1,-1,-1,-1,-1,-1,-1,-1,-1,-1,-1,-1,-1,-1,-1,-1,-1,-1,-1,-1,-1,-1,-1,-1,-1,-1,-1,-1,-1,-1,-1,-1,-1,-1,-1,-1,-1,-1,-1,-1,-1,-1,-1,-1,-1],"split_conditions":[2E0,1.2E1,2E0,9E0,1.5E1,1.1E1,1.4E1,6.39E2,1E0,6.37E2,2.1E0,3E0,2.59E2,1.9E0,1.7E1,2E0,1.3E1,2.92E2,1.1E1,1.1E1,1.771E3,3.586E3,1E0,1E0,1.4E1,1.4E1,1E0,1E0,1E1,1.6E0,1E0,8.8E1,4.43381E3,6E0,8.3E2,3.7E1,5E0,7E0,1.3E1,2E0,3E0,1.9E0,1.3E1,3E1,2E0,2E1,2.1E1,1.6E1,2.59E2,6.57E2,1E0,9E0,1.7E0,1.2E1,7E0,2.1E1,2.59E2,8E0,4E0,5.8E1,6.91E2,2.3E0,2E0,1.3391646E2,1.745969E3,3.911393E3,1.2399094E3,5.147768E3,6.6243213E3,-1.6580656E3,1.1476097E3,-1.2530254E2,-3.5871638E3,-2.3326904E1,4.4707312E2,3.2107847E3,1.647731E2,-3.7838046E2,1.154604E3,2.8539976E3,-2.2834954E3,-1.9572818E2,2.9882861E3,2.922209E3,1.446483E3,1.2232847E3,-1.262222E3,-2.2234795E3,4.3919748E2,-1.1274305E2,-1.7679786E3,5.318121E2,1.7502567E3,3.8153767E1,-1.8797203E3,2.3044205E2,-2.884234E3,1.4579397E3,-2.2440045E2,-7.282183E2,-2.5091099E3,4.41576E3,1.8826088E3,-1.8906572E3,2.1481364E2,1.1830125E3,-2.9854074E2,-1.964649E3,-2.9745054E3,6.552637E2,1.5714326E3,-8.358547E1,-1.2158575E3,4.532468E3,3.0329807E3,4.7408936E3,1.4809016E3,-1.6909319E3,-9.0171136E2,6.6608093E2,-2.580854E2,-1.2548605E3,-2.3759526E2,-2.2327383E3,-1.5093566E3],"split_indices":[4,14,6,13,14,13,14,10,6,1,11,13,10,11,14,7,0,1,13,13,5,5,4,3,14,14,3,8,14,11,8,1,0,2,10,1,2,0,9,11,5,11,14,1,6,14,0,14,10,1,8,14,11,14,14,0,10,14,0,5,10,11,11,0,0,0,0,0,0,0,0,0,0,0,0,0,0,0,0,0,0,0,0,0,0,0,0,0,0,0,0,0,0,0,0,0,0,0,0,0,0,0,0,0,0,0,0,0,0,0,0,0,0,0,0,0,0,0,0,0,0,0,0,0,0],"split_type":[0,0,0,0,0,0,0,0,0,0,0,0,0,0,0,0,0,0,0,0,0,0,0,0,0,0,0,0,0,0,0,0,0,0,0,0,0,0,0,0,0,0,0,0,0,0,0,0,0,0,0,0,0,0,0,0,0,0,0,0,0,0,0,0,0,0,0,0,0,0,0,0,0,0,0,0,0,0,0,0,0,0,0,0,0,0,0,0,0,0,0,0,0,0,0,0,0,0,0,0,0,0,0,0,0,0,0,0,0,0,0,0,0,0,0,0,0,0,0,0,0,0,0,0,0],"sum_hessian":[1.1742E4,2.177E3,9.565E3,9.01E2,1.276E3,7.511E3,2.054E3,8.63E2,3.8E1,7.38E2,5.38E2,5.058E3,2.453E3,1.513E3,5.41E2,7.1E1,7.92E2,3.2E1,6E0,3.69E2,3.69E2,3.06E2,2.32E2,1.31E3,3.748E3,1.55E2,2.298E3,7.68E2,7.45E2,2.65E2,2.76E2,6.8E1,3E0,1.12E2,6.8E2,6E0,2.6E1,2E0,4E0,3.5E2,1.9E1,1.51E2,2.18E2,2.05E2,1.01E2,1.7E1,2.15E2,3.85E2,9.25E2,2.698E3,1.05E3,1.17E2,3.8E1,1.55E2,2.143E3,6.5E2,1.18E2,2.08E2,5.37E2,9.1E1,1.74E2,9.9E1,1.77E2,1.4E1,5.4E1,9E1,2.2E1,4.69E2,2.11E2,3E0,3E0,2E0,2.4E1,1E0,1E0,3E0,1E0,4.2E1,3.08E2,2E0,1.7E1,5E0,1.46E2,3.5E1,1.83E2,3E0,2.02E2,9.9E1,2E0,4E0,1.3E1,9.7E1,1.18E2,2.44E2,1.41E2,5.8E1,8.67E2,1.941E3,7.57E2,8.23E2,2.27E2,1.8E1,9.9E1,1.3E1,2.5E1,8.3E1,7.2E1,3.5E2,1.793E3,3.17E2,3.33E2,5.1E1,6.7E1,5.4E1,1.54E2,5.1E1,4.86E2,6E0,8.5E1,1.07E2,6.7E1,8.2E1,1.7E1,1.24E2,5.3E1],"tree_param":{"num_deleted":"0","num_feature":"15","num_nodes":"125","size_leaf_vector":"1"}},{"base_weights":[2.6622326E0,5.505406E3,-1.2502102E3,1.1008921E4,1.6137249E3,-2.1612336E3,2.0806213E3,1.1666586E4,-6.663122E3,3.5396685E3,-1.0298484E3,-5.816878E2,-5.4166377E3,4.0129214E3,-1.5776405E3,1.2757705E4,7.031328E3,-8.865563E3,1.3277013E3,4.2299995E3,-2.8214777E2,-3.5961428E3,2.3559126E3,-4.893447E3,9.262603E2,3.7880374E3,-6.03887E3,2.2500295E3,5.723401E3,-2.3717613E2,-4.416268E3,1.5668305E4,1.1354875E4,3.054539E3,1.4722013E4,-9.236956E3,-8.817698E2,2.051556E3,-5.608922E2,2.125396E3,5.0099497E3,-2.5186526E3,4.8379243E3,-4.3083486E3,-1.6853427E3,4.7699472E2,4.313055E3,-1.5617725E3,-6.2769595E3,6.692286E3,-1.7232439E2,6.784947E3,7.0414105E2,1.1660476E3,-6.560292E3,2.8338733E3,-1.365117E3,1.2824605E4,5.2016133E3,6.8306195E2,-2.0536147E3,-4.0081719E3,-6.1798257E3,3.0024678E3,4.859789E3,2.8316406E3,3.9107407E3,-5.0466785E1,1.6162296E3,4.9826406E3,3.4927717E3,-2.834056E3,-6.6140234E2,1.0412222E3,2.3692021E2,5.496205E2,2.965971E3,6.0003546E2,1.6651777E3,-1.1249073E3,5.789721E2,1.1213167E3,3.7290195E3,-1.4620981E3,-3.7094727E2,-3.278473E2,-1.3836597E3,1.1812006E3,-1.4252005E2,1.7975197E3,2.7935883E2,-8.1566656E2,1.2583286E3,-2.0419154E3,4.8547607E2,2.859662E3,5.0165594E2,2.6989856E2,-1.2007792E3,3.1720266E3,1.3843557E3,-6.4735034E2,8.2259705E2,6.9340515E1,1.6872875E3,-1.9887247E3,3.1484363E3,1.6827083E3,7.074038E2,-1.1476061E3,-1.6467357E2,2.075694E3,4.0128145E3,2.7678047E3,1.2749011E3,5.857622E2,-2.356871E2,-7.575295E2,3.6239502E1,-7.179677E2,-1.3124742E3,-2.275592E3,-1.2459602E3],"categories":[],"categories_nodes":[],"categories_segments":[],"categories_sizes":[],"default_left":[0,0,0,0,0,0,0,0,0,0,0,0,0,0,0,0,0,0,0,0,0,0,0,0,0,0,0,0,0,0,0,0,0,0,0,0,0,0,0,0,0,0,0,0,0,0,0,0,0,0,0,0,0,0,0,0,0,0,0,0,0,0,0,0,0,0,0,0,0,0,0,0,0,0,0,0,0,0,0,0,0,0,0,0,0,0,0,0,0,0,0,0,0,0,0,0,0,0,0,0,0,0,0,0,0,0,0,0,0,0,0,0,0,0,0,0,0,0,0,0,0,0,0],"id":1,"left_children":[1,3,5,7,9,11,13,15,17,19,21,23,25,27,29,31,33,35,37,39,41,43,45,47,49,51,53,55,57,59,61,63,65,67,69,71,-1,73,-1,75,77,79,81,83,85,87,89,91,93,95,97,99,101,103,105,107,109,111,113,115,117,119,121,-1,-1,-1,-1,-1,-1,-1,-1,-1,-1,-1,-1,-1,-1,-1,-1,-1,-1,-1,-1,-1,-1,-1,-1,-1,-1,-1,-1,-1,-1,-1,-1,-1,-1,-1,-1,-1,-1,-1,-1,-1,-1,-1,-1,-1,-1,-1,-1,-1,-1,-1,-1,-1,-1,-1,-1,-1,-1,-1,-1],"loss_changes":[8.096589E10,4.6630478E10,2.9032198E10,1.0561028E10,6.5053286E9,3.8623998E10,1.4532839E10,4.310442E9,5.925482E8,1.9509115E9,4.691768E9,3.2897688E10,1.4078042E10,4.0428216E9,2.704364E9,2.692481E9,5.0931804E9,3.0076416E7,2.2350958E7,1.0169211E9,1.3176067E9,4.105298E8,8.547557E8,6.0331397E9,2.3749077E10,1.4369994E9,8.644534E9,1.4053599E9,2.4603218E9,8.1043584E8,1.3932186E8,5.171077E8,1.4164869E9,8.429624E8,1.3781709E8,1.4597888E7,0E0,9.794348E6,0E0,3.7118035E8,7.30923E8,4.4534435E8,2.4589114E8,3.8122547E8,1.4236803E8,3.9720538E8,6.416041E8,2.5823923E9,3.8816236E9,8.538073E9,1.29375E10,6.007946E8,4.608341E8,6.489188E8,2.5849528E9,7.421496E8,1.8464958E8,5.7255424E7,2.4011407E9,6.018916E8,1.674126E8,1.0087654E8,8.528051E7,0E0,0E0,0E0,0E0,0E0,0E0,0E0,0E0,0E0,0E0,0E0,0E0,0E0,0E0,0E0,0E0,0E0,0E0,0E0,0E0,0E0,0E0,0E0,0E0,0E0,0E0,0E0,0E0,0E0,0E0,0E0,0E0,0E0,0E0,0E0,0E0,0E0,0E0,0E0,0E0,0E0,0E0,0E0,0E0,0E0,0E0,0E0,0E0,0E0,0E0,0E0,0E0,0E0,0E0,0E0,0E0,0E0,0E0,0E0,0E0],"parents":[2147483647,0,0,1,1,2,2,3,3,4,4,5,5,6,6,7,7,8,8,9,9,10,10,11,11,12,12,13,13,14,14,15,15,16,16,17,17,18,18,19,19,20,20,21,21,22,22,23,23,24,24,25,25,26,26,27,27,28,28,29,29,30,30,31,31,32,32,33,33,34,34,35,35,37,37,39,39,40,40,41,41,42,42,43,43,44,44,45,45,46,46,47,47,48,48,49,49,50,50,51,51,52,52,53,53,54,54,55,55,56,56,57,57,58,58,59,59,60,60,61,61,62,62],"right_children":[2,4,6,8,10,12,14,16,18,20,22,24,26,28,30,32,34,36,38,40,42,44,46,48,50,52,54,56,58,60,62,64,66,68,70,72,-1,74,-1,76,78,80,82,84,86,88,90,92,94,96,98,100,102,104,106,108,110,112,114,116,118,120,122,-1,-1,-1,-1,-1,-1,-1,-1,-1,-1,-1,-1,-1,-1,-1,-1,-1,-1,-1,-1,-1,-1,-1,-1,-1,-1,-1,-1,-1,-1,-1,-1,-1,-1,-1,-1,-1,-1,-1,-1,-1,-1,-1,-1,-1,-1,-1,-1,-1,-1,-1,-1,-1,-1,-1,-1,-1,-1,-1,-1],"split_conditions":[2E0,1.2E1,2E0,4E1,1.5E1,1.1E1,1.3E1,7E0,1E0,8E0,2.1E0,3E0,2.59E2,1.9E0,1E0,9E0,2.2E0,5.03E2,4.094E3,4.36E2,2.1E0,6E0,2E0,1E0,9E0,1.2E1,1E0,1E0,1.18E2,1.6E1,2.1E1,7E0,5.6E2,2.95E2,2.147E3,6.58E2,-8.817698E2,1.771E3,-5.608922E2,2E0,1.3E1,1E0,2E0,7.25E2,2E1,1E0,1.9E1,2.4E0,4.2E1,6.57E2,1.5E1,2.67E2,1.467E3,2.5E0,1.3E1,9E0,1.4E0,7E0,9E0,2.59E2,2.3E0,4E0,1.9E0,3.0024678E3,4.859789E3,2.8316406E3,3.9107407E3,-5.0466785E1,1.6162296E3,4.9826406E3,3.4927717E3,-2.834056E3,-6.6140234E2,1.0412222E3,2.3692021E2,5.496205E2,2.965971E3,6.0003546E2,1.6651777E3,-1.1249073E3,5.789721E2,1.1213167E3,3.7290195E3,-1.4620981E3,-3.7094727E2,-3.278473E2,-1.3836597E3,1.1812006E3,-1.4252005E2,1.7975197E3,2.7935883E2,-8.1566656E2,1.2583286E3,-2.0419154E3,4.8547607E2,2.859662E3,5.0165594E2,2.6989856E2,-1.2007792E3,3.1720266E3,1.3843557E3,-6.4735034E2,8.2259705E2,6.9340515E1,1.6872875E3,-1.9887247E3,3.1484363E3,1.6827083E3,7.074038E2,-1.1476061E3,-1.6467357E2,2.075694E3,4.0128145E3,2.7678047E3,1.2749011E3,5.857622E2,-2.356871E2,-7.575295E2,3.6239502E1,-7.179677E2,-1.3124742E3,-2.275592E3,-1.2459602E3],"split_indices":[4,14,6,0,14,13,14,2,6,2,11,13,10,11,8,14,11,1,5,1,11,13,7,3,14,14,3,8,1,14,14,0,1,1,5,10,0,5,0,7,0,6,6,1,14,7,14,11,0,1,14,1,5,11,13,14,11,13,14,10,11,4,11,0,0,0,0,0,0,0,0,0,0,0,0,0,0,0,0,0,0,0,0,0,0,0,0,0,0,0,0,0,0,0,0,0,0,0,0,0,0,0,0,0,0,0,0,0,0,0,0,0,0,0,0,0,0,0,0,0,0,0,0],"split_type":[0,0,0,0,0,0,0,0,0,0,0,0,0,0,0,0,0,0,0,0,0,0,0,0,0,0,0,0,0,0,0,0,0,0,0,0,0,0,0,0,0,0,0,0,0,0,0,0,0,0,0,0,0,0,0,0,0,0,0,0,0,0,0,0,0,0,0,0,0,0,0,0,0,0,0,0,0,0,0,0,0,0,0,0,0,0,0,0,0,0,0,0,0,0,0,0,0,0,0,0,0,0,0,0,0,0,0,0,0,0,0,0,0,0,0,0,0,0,0,0,0,0,0],"sum_hessian":[1.1742E4,2.177E3,9.565E3,9.01E2,1.276E3,7.511E3,2.054E3,8.69E2,3.2E1,7.38E2,5.38E2,5.058E3,2.453E3,1.344E3,7.1E2,7.02E2,1.67E2,2.5E1,7E0,6.25E2,1.13E2,3.06E2,2.32E2,1.31E3,3.748E3,1.55E2,2.298E3,6.63E2,6.81E2,4.83E2,2.27E2,2.25E2,4.77E2,1.11E2,5.6E1,2.3E1,2E0,6E0,1E0,1.7E2,4.55E2,7.9E1,3.4E1,2.22E2,8.4E1,1.19E2,1.13E2,3.85E2,9.25E2,5.99E2,3.149E3,7.8E1,7.7E1,1.55E2,2.143E3,5.71E2,9.2E1,4.5E1,6.36E2,3.21E2,1.62E2,1.87E2,4E1,2.1E1,2.04E2,2.26E2,2.51E2,4.7E1,6.4E1,3.2E1,2.4E1,2.2E1,1E0,2E0,4E0,1.65E2,5E0,7E1,3.85E2,6.2E1,1.7E1,3.1E1,3E0,1.87E2,3.5E1,7.1E1,1.3E1,2.5E1,9.4E1,7.5E1,3.8E1,3.21E2,6.4E1,8.67E2,5.8E1,3.82E2,2.17E2,2.461E3,6.88E2,2.7E1,5.1E1,3.2E1,4.5E1,1.29E2,2.6E1,2.135E3,8E0,8.2E1,4.89E2,2.2E1,7E1,5E0,4E1,1.2E2,5.16E2,1.72E2,1.49E2,1.33E2,2.9E1,3.6E1,1.51E2,2.2E1,1.8E1],"tree_param":{"num_deleted":"0","num_feature":"15","num_nodes":"123","size_leaf_vector":"1"}},{"base_weights":[5.686594E0,3.8678528E3,-8.7365735E2,7.7295107E3,1.1371691E3,-1.5116702E3,1.4590073E3,8.241081E3,-3.8019314E3,2.491415E3,-7.2168976E2,-4.0692108E2,-3.7885298E3,2.8173792E3,-1.112679E3,6.0875083E3,1.0128029E4,-5.239842E3,3.519922E3,3.5272622E3,1.2453088E3,-2.528846E3,1.6625105E3,-3.4262625E3,6.490307E2,2.681957E3,-4.225941E3,7.423238E3,2.3268506E3,4.255361E0,-2.8626924E3,3.4770957E3,8.630024E3,9.30403E3,1.1342216E4,-7.1027246E2,-6.2201064E3,1.9544543E3,1.01898224E3,3.8446553E3,-3.4750154E3,6.4508945E3,8.4346375E2,-1.63028E3,-3.5346514E3,2.153762E3,-3.9838884E3,-5.2373564E3,-1.5480824E3,1.2476428E3,-4.7884976E3,4.0259333E3,-1.4532012E3,8.274936E2,-4.5916636E3,8.303179E3,3.0068496E3,8.455136E2,3.742526E3,-1.821769E3,7.885339E2,-8.2356085E2,-3.2236284E3,2.3264053E3,4.0325638E2,3.072027E3,1.4768546E3,2.8577861E3,1.2091123E3,3.8163357E3,3.013369E3,-1.9144637E3,8.503637E2,-1.9306647E3,-7.0541583E2,7.167094E2,2.3763649E1,5.553823E2,1.3178927E3,-1.7371586E3,1.8230737E3,3.01456E3,1.2280386E2,6.863069E1,1.2253431E3,-3.4561316E2,-1.1735991E3,-1.0865353E3,5.3035266E2,1.2565801E1,1.00675146E3,-1.7280049E3,-4.111235E2,-1.8541632E3,-4.3187997E2,-4.9707727E0,-1.0595717E3,9.1591815E2,-1.6149568E2,-1.7810802E3,-5.194631E2,2.207223E3,7.5973517E2,-1.4041328E3,1.0213095E2,5.5442334E2,-6.535206E2,-1.5714261E3,-9.752105E2,2.2190967E3,3.8984463E3,2.322095E3,2.6427045E2,5.998145E2,-9.219694E1,1.8598507E3,6.579404E2,-5.7521423E2,8.690373E2,-2.9251434E1,5.300712E2,-7.225321E1,-7.490526E2,-1.0414075E3,-1.160906E2],"categories":[],"categories_nodes":[],"categories_segments":[],"categories_sizes":[],"default_left":[0,0,0,0,0,0,0,0,0,0,0,0,0,0,0,0,0,0,0,0,0,0,0,0,0,0,0,0,0,0,0,0,0,0,0,0,0,0,0,0,0,0,0,0,0,0,0,0,0,0,0,0,0,0,0,0,0,0,0,0,0,0,0,0,0,0,0,0,0,0,0,0,0,0,0,0,0,0,0,0,0,0,0,0,0,0,0,0,0,0,0,0,0,0,0,0,0,0,0,0,0,0,0,0,0,0,0,0,0,0,0,0,0,0,0,0,0,0,0,0,0,0,0,0,0],"id":2,"left_children":[1,3,5,7,9,11,13,15,17,19,21,23,25,27,29,31,33,35,37,39,41,43,45,47,49,51,53,55,57,59,61,63,65,67,69,71,73,-1,75,77,79,81,83,85,87,89,91,93,95,97,99,101,103,105,107,109,111,113,115,117,119,121,123,-1,-1,-1,-1,-1,-1,-1,-1,-1,-1,-1,-1,-1,-1,-1,-1,-1,-1,-1,-1,-1,-1,-1,-1,-1,-1,-1,-1,-1,-1,-1,-1,-1,-1,-1,-1,-1,-1,-1,-1,-1,-1,-1,-1,-1,-1,-1,-1,-1,-1,-1,-1,-1,-1,-1,-1,-1,-1,-1,-1,-1,-1],"loss_changes":[3.9884632E10,2.2958148E10,1.4238994E10,5.352358E9,3.2164562E9,1.8893836E10,7.18188E9,3.4493645E9,4.290425E8,9.494912E8,2.3265516E9,1.6131726E10,6.95679E9,3.0214912E9,1.3897684E9,2.664622E9,3.536937E8,1.4210784E8,4.5792384E7,9.090171E8,6.995087E8,2.716987E8,6.5487616E8,4.4513403E9,1.2208856E10,8.7282906E8,4.252713E9,4.7634893E8,2.548997E9,6.2440506E8,2.01216E8,1.8325635E9,1.1731917E9,2.8813312E8,1.960919E8,1.5881419E8,7.371648E6,0E0,6.248415E6,4.1376973E8,4.3330554E8,5.175342E8,6.246271E8,1.7444992E8,7.293363E7,5.456661E8,8.030189E7,2.3802941E9,1.959613E9,1.0893688E10,1.2957061E9,5.684772E8,2.2734494E8,4.825978E8,1.841451E9,3.5878912E8,2.2463296E8,7.934265E8,2.3542426E9,6.465485E7,2.645688E8,4.132577E7,1.63797E8,0E0,0E0,0E0,0E0,0E0,0E0,0E0,0E0,0E0,0E0,0E0,0E0,0E0,0E0,0E0,0E0,0E0,0E0,0E0,0E0,0E0,0E0,0E0,0E0,0E0,0E0,0E0,0E0,0E0,0E0,0E0,0E0,0E0,0E0,0E0,0E0,0E0,0E0,0E0,0E0,0E0,0E0,0E0,0E0,0E0,0E0,0E0,0E0,0E0,0E0,0E0,0E0,0E0,0E0,0E0,0E0,0E0,0E0,0E0,0E0,0E0,0E0],"parents":[2147483647,0,0,1,1,2,2,3,3,4,4,5,5,6,6,7,7,8,8,9,9,10,10,11,11,12,12,13,13,14,14,15,15,16,16,17,17,18,18,19,19,20,20,21,21,22,22,23,23,24,24,25,25,26,26,27,27,28,28,29,29,30,30,31,31,32,32,33,33,34,34,35,35,36,36,38,38,39,39,40,40,41,41,42,42,43,43,44,44,45,45,46,46,47,47,48,48,49,49,50,50,51,51,52,52,53,53,54,54,55,55,56,56,57,57,58,58,59,59,60,60,61,61,62,62],"right_children":[2,4,6,8,10,12,14,16,18,20,22,24,26,28,30,32,34,36,38,40,42,44,46,48,50,52,54,56,58,60,62,64,66,68,70,72,74,-1,76,78,80,82,84,86,88,90,92,94,96,98,100,102,104,106,108,110,112,114,116,118,120,122,124,-1,-1,-1,-1,-1,-1,-1,-1,-1,-1,-1,-1,-1,-1,-1,-1,-1,-1,-1,-1,-1,-1,-1,-1,-1,-1,-1,-1,-1,-1,-1,-1,-1,-1,-1,-1,-1,-1,-1,-1,-1,-1,-1,-1,-1,-1,-1,-1,-1,-1,-1,-1,-1,-1,-1,-1,-1,-1,-1,-1,-1,-1],"split_conditions":[2E0,1.2E1,2E0,9E0,1.5E1,1.1E1,1.3E1,7.51E2,1E0,2.403E3,2.1E0,3E0,2.59E2,1E0,1.7E1,5.9E2,5.12E2,2.92E2,9.24E2,9E0,2.59E2,9E2,2.1E1,3E0,1E0,1.4E1,1E0,1.2E1,1E0,1.6E0,3E0,2.11E2,6.57E2,4.29E2,7.07E2,8E0,4.63E2,1.9544543E3,5.7E1,4.36E2,2E0,3.1E1,5.014E3,2.1E1,2E0,1E0,1.3E1,2.4E1,1.2E1,4.43E2,4E0,2.63E2,1.7E0,1.4E1,3.368E3,4.2E1,2.6E1,1.1E1,2.58E2,7.75E2,1E0,2.59E2,1E1,2.3264053E3,4.0325638E2,3.072027E3,1.4768546E3,2.8577861E3,1.2091123E3,3.8163357E3,3.013369E3,-1.9144637E3,8.503637E2,-1.9306647E3,-7.0541583E2,7.167094E2,2.3763649E1,5.553823E2,1.3178927E3,-1.7371586E3,1.8230737E3,3.01456E3,1.2280386E2,6.863069E1,1.2253431E3,-3.4561316E2,-1.1735991E3,-1.0865353E3,5.3035266E2,1.2565801E1,1.00675146E3,-1.7280049E3,-4.111235E2,-1.8541632E3,-4.3187997E2,-4.9707727E0,-1.0595717E3,9.1591815E2,-1.6149568E2,-1.7810802E3,-5.194631E2,2.207223E3,7.5973517E2,-1.4041328E3,1.0213095E2,5.5442334E2,-6.535206E2,-1.5714261E3,-9.752105E2,2.2190967E3,3.8984463E3,2.322095E3,2.6427045E2,5.998145E2,-9.219694E1,1.8598507E3,6.579404E2,-5.7521423E2,8.690373E2,-2.9251434E1,5.300712E2,-7.225321E1,-7.490526E2,-1.0414075E3,-1.160906E2],"split_indices":[4,14,6,13,14,13,14,10,6,5,11,13,10,7,14,1,1,1,5,13,10,10,14,4,8,14,3,14,3,11,4,1,1,1,1,9,1,0,1,1,6,0,5,14,6,6,9,0,14,1,2,1,11,14,5,0,0,14,1,1,3,10,13,0,0,0,0,0,0,0,0,0,0,0,0,0,0,0,0,0,0,0,0,0,0,0,0,0,0,0,0,0,0,0,0,0,0,0,0,0,0,0,0,0,0,0,0,0,0,0,0,0,0,0,0,0,0,0,0,0,0,0,0,0,0],"split_type":[0,0,0,0,0,0,0,0,0,0,0,0,0,0,0,0,0,0,0,0,0,0,0,0,0,0,0,0,0,0,0,0,0,0,0,0,0,0,0,0,0,0,0,0,0,0,0,0,0,0,0,0,0,0,0,0,0,0,0,0,0,0,0,0,0,0,0,0,0,0,0,0,0,0,0,0,0,0,0,0,0,0,0,0,0,0,0,0,0,0,0,0,0,0,0,0,0,0,0,0,0,0,0,0,0,0,0,0,0,0,0,0,0,0,0,0,0,0,0,0,0,0,0,0,0],"sum_hessian":[1.1742E4,2.177E3,9.565E3,9.01E2,1.276E3,7.511E3,2.054E3,8.63E2,3.8E1,7.38E2,5.38E2,5.058E3,2.453E3,1.344E3,7.1E2,4.05E2,4.58E2,3.2E1,6E0,4.02E2,3.36E2,3.06E2,2.32E2,1.31E3,3.748E3,1.55E2,2.298E3,1.28E2,1.216E3,4.34E2,2.76E2,2.01E2,2.04E2,2.78E2,1.8E2,6E0,2.6E1,2E0,4E0,3.85E2,1.7E1,2.3E1,3.13E2,1.63E2,1.43E2,2.14E2,1.8E1,6.66E2,6.44E2,3.377E3,3.71E2,1.17E2,3.8E1,1.55E2,2.143E3,1.06E2,2.2E1,5.95E2,6.21E2,1.3E2,3.04E2,4.2E1,2.34E2,6.6E1,1.35E2,1.41E2,6.3E1,2.66E2,1.2E1,8.3E1,9.7E1,2E0,4E0,2.4E1,2E0,1E0,3E0,8.4E1,3.01E2,1.4E1,3E0,1.4E1,9E0,2.64E2,4.9E1,1.36E2,2.7E1,1.41E2,2E0,7.8E1,1.36E2,1E1,8E0,5.33E2,1.33E2,3.64E2,2.8E2,1.679E3,1.698E3,2.69E2,1.02E2,3.5E1,8.2E1,1.3E1,2.5E1,1.16E2,3.9E1,1.444E3,6.99E2,9.1E1,1.5E1,6E0,1.6E1,2.97E2,2.98E2,2.39E2,3.82E2,1.28E2,2E0,1.6E2,1.44E2,3.2E1,1E1,2.15E2,1.9E1],"tree_param":{"num_deleted":"0","num_feature":"15","num_nodes":"125","size_leaf_vector":"1"}},{"base_weights":[6.1123514E0,2.7168474E3,-6.1107214E2,5.429693E3,7.9852057E2,2.4114886E2,-1.6939537E3,5.7731895E3,-3.7906716E3,2.3569524E3,-1.493048E2,1.2278273E3,-1.2528788E3,-4.2848687E3,-1.39297E3,3.9634949E3,6.8610425E3,-4.9711553E3,5.19735E2,2.6139448E3,-4.4272334E3,-7.575056E2,2.7773643E3,-1.01068164E3,2.7754756E3,-2.304095E3,3.7050054E3,-5.0123364E3,-2.6670962E3,-4.609736E2,-2.5642356E3,1.3795256E3,5.846612E3,6.274697E3,9.3591E3,-7.809025E3,-4.1002236E3,1.1056464E3,-5.372467E2,-1.3371725E2,3.0999802E3,-5.5991343E3,1.0742031E3,-2.930908E1,-2.0370588E3,5.879254E3,1.0383759E3,-1.7320297E3,2.0504707E3,1.4681888E3,4.6421094E3,2.4984167E3,-2.6480269E3,2.0664214E3,4.7497935E3,-2.4395984E3,-4.5443086E3,-2.0158905E3,-3.1568062E3,3.1848672E2,-1.9408838E3,-2.9895396E3,-3.5292285E2,1.9746428E2,8.6630023E2,2.3717542E3,1.0841395E3,2.30179E3,1.3539712E3,2.6245955E3,3.3804036E3,-2.7834485E3,-2.8987207E2,-1.2626805E3,-2.725923E2,-1.8591856E2,4.489491E2,-1.057835E3,2.7518213E2,1.407408E3,7.0459143E2,1.8833423E2,-2.1624534E3,6.796145E2,-3.748998E2,3.3003275E2,-4.0317523E2,-6.4377045E2,2.1721526E3,1.3588585E3,3.0390498E3,-1.0277273E3,5.752073E2,3.3036914E2,-8.428957E2,1.733315E3,3.7679303E2,-1.257547E3,5.224116E2,3.387046E2,1.7451587E3,-3.3714203E2,1.1406035E3,-1.0268448E3,-4.2549966E2,-2.6981204E3,6.6113306E2,-1.6252454E2,1.5380253E3,-1.131212E3,-1.8471414E3,-2.4337155E2,-8.766047E2,-1.2211692E3,-6.8952704E2,5.395783E2,-2.5325493E2,-7.209858E2,2.4503464E2,-6.337236E2,-1.4015347E3,-2.2983649E2,5.0544376E2],"categories":[],"categories_nodes":[],"categories_segments":[],"categories_sizes":[],"default_left":[0,0,0,0,0,0,0,0,0,0,0,0,0,0,0,0,0,0,0,0,0,0,0,0,0,0,0,0,0,0,0,0,0,0,0,0,0,0,0,0,0,0,0,0,0,0,0,0,0,0,0,0,0,0,0,0,0,0,0,0,0,0,0,0,0,0,0,0,0,0,0,0,0,0,0,0,0,0,0,0,0,0,0,0,0,0,0,0,0,0,0,0,0,0,0,0,0,0,0,0,0,0,0,0,0,0,0,0,0,0,0,0,0,0,0,0,0,0,0,0,0,0,0],"id":3,"left_children":[1,3,5,7,9,11,13,15,17,19,21,23,25,27,29,31,33,35,37,39,41,43,45,47,49,51,53,55,57,59,61,63,65,67,69,71,73,75,-1,77,79,81,83,85,87,89,91,93,95,97,99,101,103,105,107,-1,109,111,113,115,117,119,121,-1,-1,-1,-1,-1,-1,-1,-1,-1,-1,-1,-1,-1,-1,-1,-1,-1,-1,-1,-1,-1,-1,-1,-1,-1,-1,-1,-1,-1,-1,-1,-1,-1,-1,-1,-1,-1,-1,-1,-1,-1,-1,-1,-1,-1,-1,-1,-1,-1,-1,-1,-1,-1,-1,-1,-1,-1,-1,-1,-1],"loss_changes":[1.9647977E10,1.1330246E10,8.828433E9,2.8786708E9,1.886636E9,7.894002E9,3.2794286E9,1.6855593E9,1.7049978E8,8.5367475E8,1.4172058E9,1.1175574E10,1.1109687E10,5.0210304E8,4.1207578E9,1.5928207E9,7.351542E8,3.2242624E7,1.281027E7,6.227397E8,1.220631E8,6.139743E8,7.328937E8,2.9161098E9,4.646696E9,2.9103698E9,6.2875085E8,4.0253235E8,3.764467E7,2.4276477E9,1.5723684E9,1.5039688E8,8.4502886E8,1.0537554E9,1.9115008E7,4.129997E7,3.808736E6,5.647967E6,0E0,2.5637646E8,4.624676E8,1.5481587E8,1.390354E7,6.26555E8,2.5687782E8,2.3525568E8,3.5579475E8,3.2638945E9,7.389845E8,1.7437051E9,3.2340593E9,5.614581E8,1.558613E9,2.4313856E8,4.5557043E8,0E0,3.0617293E8,6.530659E7,5.103936E7,2.3746068E9,9.2772224E8,2.0603146E9,2.2946995E8,0E0,0E0,0E0,0E0,0E0,0E0,0E0,0E0,0E0,0E0,0E0,0E0,0E0,0E0,0E0,0E0,0E0,0E0,0E0,0E0,0E0,0E0,0E0,0E0,0E0,0E0,0E0,0E0,0E0,0E0,0E0,0E0,0E0,0E0,0E0,0E0,0E0,0E0,0E0,0E0,0E0,0E0,0E0,0E0,0E0,0E0,0E0,0E0,0E0,0E0,0E0,0E0,0E0,0E0,0E0,0E0,0E0,0E0,0E0,0E0],"parents":[2147483647,0,0,1,1,2,2,3,3,4,4,5,5,6,6,7,7,8,8,9,9,10,10,11,11,12,12,13,13,14,14,15,15,16,16,17,17,18,18,19,19,20,20,21,21,22,22,23,23,24,24,25,25,26,26,27,27,28,28,29,29,30,30,31,31,32,32,33,33,34,34,35,35,36,36,37,37,39,39,40,40,41,41,42,42,43,43,44,44,45,45,46,46,47,47,48,48,49,49,50,50,51,51,52,52,53,53,54,54,56,56,57,57,58,58,59,59,60,60,61,61,62,62],"right_children":[2,4,6,8,10,12,14,16,18,20,22,24,26,28,30,32,34,36,38,40,42,44,46,48,50,52,54,56,58,60,62,64,66,68,70,72,74,76,-1,78,80,82,84,86,88,90,92,94,96,98,100,102,104,106,108,-1,110,112,114,116,118,120,122,-1,-1,-1,-1,-1,-1,-1,-1,-1,-1,-1,-1,-1,-1,-1,-1,-1,-1,-1,-1,-1,-1,-1,-1,-1,-1,-1,-1,-1,-1,-1,-1,-1,-1,-1,-1,-1,-1,-1,-1,-1,-1,-1,-1,-1,-1,-1,-1,-1,-1,-1,-1,-1,-1,-1,-1,-1,-1,-1,-1],"split_conditions":[2E0,1.2E1,1.2E1,4E1,1.4E1,1.2E1,1.4E0,6.87E2,1E0,1.1E1,2E0,4E0,1E0,2E0,6.45E2,5.6E2,4.727E3,9E0,4.094E3,2.92E2,2E0,1.7E1,1.7E1,6E0,6.97E2,1E0,1.9E0,2.93E2,4E0,1.6E1,2E0,4.066E3,2.026E3,1.961E3,1.8E1,8E0,6.58E2,2E0,-5.372467E2,6.42E2,1.514E3,6.12E2,5.495E3,2.688E3,1.5E1,2E0,1.21E3,9E0,1E1,1.3E0,1E0,1.6E0,3.219E3,6E0,2.93E2,-2.4395984E3,1E0,2.59E2,1.726E3,2.59E2,2.4E0,1.1E1,4.639E3,1.9746428E2,8.6630023E2,2.3717542E3,1.0841395E3,2.30179E3,1.3539712E3,2.6245955E3,3.3804036E3,-2.7834485E3,-2.8987207E2,-1.2626805E3,-2.725923E2,-1.8591856E2,4.489491E2,-1.057835E3,2.7518213E2,1.407408E3,7.0459143E2,1.8833423E2,-2.1624534E3,6.796145E2,-3.748998E2,3.3003275E2,-4.0317523E2,-6.4377045E2,2.1721526E3,1.3588585E3,3.0390498E3,-1.0277273E3,5.752073E2,3.3036914E2,-8.428957E2,1.733315E3,3.7679303E2,-1.257547E3,5.224116E2,3.387046E2,1.7451587E3,-3.3714203E2,1.1406035E3,-1.0268448E3,-4.2549966E2,-2.6981204E3,6.6113306E2,-1.6252454E2,1.5380253E3,-1.131212E3,-1.8471414E3,-2.4337155E2,-8.766047E2,-1.2211692E3,-6.8952704E2,5.395783E2,-2.5325493E2,-7.209858E2,2.4503464E2,-6.337236E2,-1.4015347E3,-2.2983649E2,5.0544376E2],"split_indices":[4,14,14,0,14,13,11,10,6,13,7,4,6,6,10,1,5,13,5,1,6,14,14,13,10,3,11,5,4,14,6,5,5,5,0,9,10,9,0,10,5,5,5,5,9,6,5,14,14,11,13,11,5,14,5,0,3,10,5,10,11,13,5,0,0,0,0,0,0,0,0,0,0,0,0,0,0,0,0,0,0,0,0,0,0,0,0,0,0,0,0,0,0,0,0,0,0,0,0,0,0,0,0,0,0,0,0,0,0,0,0,0,0,0,0,0,0,0,0,0,0,0,0],"split_type":[0,0,0,0,0,0,0,0,0,0,0,0,0,0,0,0,0,0,0,0,0,0,0,0,0,0,0,0,0,0,0,0,0,0,0,0,0,0,0,0,0,0,0,0,0,0,0,0,0,0,0,0,0,0,0,0,0,0,0,0,0,0,0,0,0,0,0,0,0,0,0,0,0,0,0,0,0,0,0,0,0,0,0,0,0,0,0,0,0,0,0,0,0,0,0,0,0,0,0,0,0,0,0,0,0,0,0,0,0,0,0,0,0,0,0,0,0,0,0,0,0,0,0],"sum_hessian":[1.1742E4,2.177E3,9.565E3,9.01E2,1.276E3,5.353E3,4.212E3,8.69E2,3.2E1,4.82E2,7.94E2,3.224E3,2.129E3,4.37E2,3.775E3,3.28E2,5.41E2,2.5E1,7E0,4.65E2,1.7E1,6.58E2,1.36E2,1.318E3,1.906E3,1.757E3,3.72E2,3E2,1.37E2,2.103E3,1.672E3,1.39E2,1.89E2,4.41E2,1E2,4E0,2.1E1,6E0,1E0,7E1,3.95E2,1.4E1,3E0,4.2E2,2.38E2,4.8E1,8.8E1,1.067E3,2.51E2,1.122E3,7.84E2,1.17E2,1.64E3,1.46E2,2.26E2,3.7E1,2.63E2,6.1E1,7.6E1,1.378E3,7.25E2,1.402E3,2.7E2,9.5E1,4.4E1,9.7E1,9.2E1,2.44E2,1.97E2,8E1,2E1,3E0,1E0,2E1,1E0,1E0,5E0,1.6E1,5.4E1,1.25E2,2.7E2,3E0,1.1E1,2E0,1E0,2.26E2,1.94E2,2.36E2,2E0,3.8E1,1E1,1.4E1,7.4E1,2.94E2,7.73E2,4.3E1,2.08E2,5.1E1,1.071E3,1.97E2,5.87E2,3.1E1,8.6E1,1.005E3,6.35E2,1E0,1.45E2,1.5E1,2.11E2,1.8E2,8.3E1,2.7E1,3.4E1,3.5E1,4.1E1,6.06E2,7.72E2,6.21E2,1.04E2,9.23E2,4.79E2,2.25E2,4.5E1],"tree_param":{"num_deleted":"0","num_feature":"15","num_nodes":"123","size_leaf_vector":"1"}},{"base_weights":[4.755226E0,1.9083855E3,-4.286664E2,4.1783115E3,7.6113116E2,7.588252E2,-8.9647186E2,5.0055625E3,1.5214132E3,-1.5437773E3,1.1731073E3,1.887869E3,-7.871067E2,-1.2707615E3,6.880957E2,-3.163745E3,5.130368E3,-3.4146127E2,5.815982E3,-2.0180875E3,-7.518218E2,-7.788514E2,1.7234803E3,4.2255566E3,6.0015375E2,-1.4700819E3,3.265844E3,-1.399597E3,3.1364438E3,2.8856782E3,-1.3011485E2,5.7012115E2,-4.8821313E3,4.568451E3,6.7087607E3,5.9735126E2,-4.2389526E3,2.0319867E3,3.746418E3,8.6167737E2,-2.111813E3,-1.0713134E3,9.221588E2,1.4708959E3,-1.6157324E3,-3.2979065E3,1.9172535E3,3.032552E3,7.914664E3,8.086185E0,3.862203E3,3.99149E3,-1.7255248E3,8.098162E3,2.426115E3,-1.0037786E3,-2.7168096E3,2.4633806E3,1.1907072E4,1.5595818E2,4.6129507E3,1.295713E3,-1.1519806E3,-5.502627E1,-1.6904038E3,1.6404823E3,9.099018E2,2.4740383E3,1.6346031E3,-4.7486676E2,5.7088055E2,-2.1152495E3,-9.972106E2,6.56315E1,2.2925151E3,-2.4814299E2,-7.104732E2,-8.816203E2,-2.6559476E2,-5.0579494E1,7.2138043E2,5.147391E2,-2.4610308E3,-5.4845703E2,9.147032E2,-1.199724E3,-2.2501329E2,7.473218E2,2.9841745E2,1.388715E3,-9.322943E1,4.7382554E3,1.593995E3,1.1064249E3,-1.4526465E2,-1.0163458E3,1.9760648E3,3.7350122E2,2.0044156E3,-7.393993E2,-7.464522E1,2.5353545E3,-3.1907227E0,1.4140952E3,4.634884E2,-7.1242725E2,-1.3122202E2,-1.3902913E2,-1.050473E3,1.3409866E3,-5.0458267E2,4.584678E3,-6.562557E2,-1.1819911E3,5.552029E2,1.9299525E3,6.698213E2,-7.8412805E2,5.033265E2,1.9870582E3,-4.0927835E2],"categories":[],"categories_nodes":[],"categories_segments":[],"categories_sizes":[],"default_left":[0,0,0,0,0,0,0,0,0,0,0,0,0,0,0,0,0,0,0,0,0,0,0,0,0,0,0,0,0,0,0,0,0,0,0,0,0,0,0,0,0,0,0,0,0,0,0,0,0,0,0,0,0,0,0,0,0,0,0,0,0,0,0,0,0,0,0,0,0,0,0,0,0,0,0,0,0,0,0,0,0,0,0,0,0,0,0,0,0,0,0,0,0,0,0,0,0,0,0,0,0,0,0,0,0,0,0,0,0,0,0,0,0,0,0,0,0,0,0,0,0],"id":4,"left_children":[1,3,5,7,9,11,13,15,17,19,21,23,25,27,29,31,33,35,37,39,41,43,45,47,49,51,53,55,57,59,61,-1,63,65,67,69,71,-1,73,-1,75,77,79,81,83,85,87,89,91,93,95,97,99,101,103,105,107,109,111,113,115,117,119,-1,-1,-1,-1,-1,-1,-1,-1,-1,-1,-1,-1,-1,-1,-1,-1,-1,-1,-1,-1,-1,-1,-1,-1,-1,-1,-1,-1,-1,-1,-1,-1,-1,-1,-1,-1,-1,-1,-1,-1,-1,-1,-1,-1,-1,-1,-1,-1,-1,-1,-1,-1,-1,-1,-1,-1,-1,-1],"loss_changes":[9.689669E9,5.66873E9,5.314737E9,1.5990651E9,1.3767849E9,4.721115E9,4.071232E9,5.841336E8,1.4020283E9,8.112189E7,1.3216636E9,4.7025244E9,3.165931E9,3.1568425E9,2.3594634E9,8.759749E7,4.5627392E8,4.5259085E8,7.962842E7,6.885971E7,4.5913044E7,5.126075E8,9.394396E8,2.4186214E9,1.9487044E9,1.3713143E9,6.498958E8,2.8101007E9,9.033719E8,1.6778102E9,1.395846E9,0E0,2.3718512E7,5.471196E8,2.3026944E8,2.8766083E8,3.830608E7,0E0,2.594117E8,0E0,4.2513984E7,2.2059128E7,2.30432E7,1.8940011E8,2.018041E8,6.131427E7,4.8665523E8,2.248567E9,2.683225E9,1.5507622E9,3.0841836E9,3.167431E8,1.0199327E9,6.879142E7,2.789428E8,3.2213696E9,2.201776E9,1.2385672E9,5.5672115E8,9.721523E8,9.301253E8,6.018184E8,9.300651E8,0E0,0E0,0E0,0E0,0E0,0E0,0E0,0E0,0E0,0E0,0E0,0E0,0E0,0E0,0E0,0E0,0E0,0E0,0E0,0E0,0E0,0E0,0E0,0E0,0E0,0E0,0E0,0E0,0E0,0E0,0E0,0E0,0E0,0E0,0E0,0E0,0E0,0E0,0E0,0E0,0E0,0E0,0E0,0E0,0E0,0E0,0E0,0E0,0E0,0E0,0E0,0E0,0E0,0E0,0E0,0E0,0E0,0E0],"parents":[2147483647,0,0,1,1,2,2,3,3,4,4,5,5,6,6,7,7,8,8,9,9,10,10,11,11,12,12,13,13,14,14,15,15,16,16,17,17,18,18,19,19,20,20,21,21,22,22,23,23,24,24,25,25,26,26,27,27,28,28,29,29,30,30,32,32,33,33,34,34,35,35,36,36,38,38,40,40,41,41,42,42,43,43,44,44,45,45,46,46,47,47,48,48,49,49,50,50,51,51,52,52,53,53,54,54,55,55,56,56,57,57,58,58,59,59,60,60,61,61,62,62],"right_children":[2,4,6,8,10,12,14,16,18,20,22,24,26,28,30,32,34,36,38,40,42,44,46,48,50,52,54,56,58,60,62,-1,64,66,68,70,72,-1,74,-1,76,78,80,82,84,86,88,90,92,94,96,98,100,102,104,106,108,110,112,114,116,118,120,-1,-1,-1,-1,-1,-1,-1,-1,-1,-1,-1,-1,-1,-1,-1,-1,-1,-1,-1,-1,-1,-1,-1,-1,-1,-1,-1,-1,-1,-1,-1,-1,-1,-1,-1,-1,-1,-1,-1,-1,-1,-1,-1,-1,-1,-1,-1,-1,-1,-1,-1,-1,-1,-1,-1,-1,-1,-1],"split_conditions":[2E0,1.1E1,1E1,7E0,2E0,1.1E1,4.041E3,5.85E2,2.1E0,5E0,1.7E1,3.57E2,1E0,2E0,2.63E2,1.6E0,4.124E3,2.1E1,2.229E3,2E0,1.3E1,1.771E3,1E0,2.4E1,8.93E2,1E0,1.94E2,2.532E3,3.635E3,1.8E0,5.84E2,5.7012115E2,7E0,1.902E3,1.2E1,2.67E2,4E1,2.0319867E3,3.681E3,8.6167737E2,1.3E1,2.6E1,1.7E0,1E0,5.157E3,5.95E2,7.89E2,5E0,9.5E1,3.64E2,4.01E2,1.8E1,1.2E1,5E0,5.21E2,1.6E0,3.53E2,2.7E1,1E0,1.8E1,7.61E2,1.4E0,2E0,-5.502627E1,-1.6904038E3,1.6404823E3,9.099018E2,2.4740383E3,1.6346031E3,-4.7486676E2,5.7088055E2,-2.1152495E3,-9.972106E2,6.56315E1,2.2925151E3,-2.4814299E2,-7.104732E2,-8.816203E2,-2.6559476E2,-5.0579494E1,7.2138043E2,5.147391E2,-2.4610308E3,-5.4845703E2,9.147032E2,-1.199724E3,-2.2501329E2,7.473218E2,2.9841745E2,1.388715E3,-9.322943E1,4.7382554E3,1.593995E3,1.1064249E3,-1.4526465E2,-1.0163458E3,1.9760648E3,3.7350122E2,2.0044156E3,-7.393993E2,-7.464522E1,2.5353545E3,-3.1907227E0,1.4140952E3,4.634884E2,-7.1242725E2,-1.3122202E2,-1.3902913E2,-1.050473E3,1.3409866E3,-5.0458267E2,4.584678E3,-6.562557E2,-1.1819911E3,5.552029E2,1.9299525E3,6.698213E2,-7.8412805E2,5.033265E2,1.9870582E3,-4.0927835E2],"split_indices":[4,14,14,2,11,13,5,10,11,13,0,1,6,7,1,11,5,0,5,2,9,5,4,0,10,3,1,5,5,11,10,0,0,5,9,1,0,0,5,0,14,5,11,8,5,1,10,13,1,10,1,0,9,4,10,11,10,0,6,0,10,11,2,0,0,0,0,0,0,0,0,0,0,0,0,0,0,0,0,0,0,0,0,0,0,0,0,0,0,0,0,0,0,0,0,0,0,0,0,0,0,0,0,0,0,0,0,0,0,0,0,0,0,0,0,0,0,0,0,0,0],"split_type":[0,0,0,0,0,0,0,0,0,0,0,0,0,0,0,0,0,0,0,0,0,0,0,0,0,0,0,0,0,0,0,0,0,0,0,0,0,0,0,0,0,0,0,0,0,0,0,0,0,0,0,0,0,0,0,0,0,0,0,0,0,0,0,0,0,0,0,0,0,0,0,0,0,0,0,0,0,0,0,0,0,0,0,0,0,0,0,0,0,0,0,0,0,0,0,0,0,0,0,0,0,0,0,0,0,0,0,0,0,0,0,0,0,0,0,0,0,0,0,0,0],"sum_hessian":[1.1742E4,2.177E3,9.565E3,7.3E2,1.447E3,2.703E3,6.862E3,5.56E2,1.74E2,2.19E2,1.228E3,1.562E3,1.141E3,5.551E3,1.311E3,8E0,5.48E2,1.22E2,5.2E1,1.36E2,8.3E1,2.7E2,9.58E2,5.54E2,1.008E3,9.77E2,1.64E2,5.394E3,1.57E2,3.55E2,9.56E2,2E0,6E0,4.07E2,1.41E2,9.9E1,2.3E1,3.4E1,1.8E1,2E0,1.34E2,7E1,1.3E1,7.3E1,1.97E2,3.5E1,9.23E2,4.2E2,1.34E2,8.54E2,1.54E2,4.3E1,9.34E2,2.3E1,1.41E2,4.149E3,1.245E3,1.47E2,1E1,1.38E2,2.17E2,3.99E2,5.57E2,1E0,5E0,2.55E2,1.52E2,6.1E1,8E1,3.7E1,6.2E1,4E0,1.9E1,1E1,8E0,2.3E1,1.11E2,5E0,6.5E1,8E0,5E0,7.2E1,1E0,1.89E2,8E0,2.7E1,8E0,5.68E2,3.55E2,2.84E2,1.36E2,3.2E1,1.02E2,1E2,7.54E2,4.2E1,1.12E2,2.2E1,2.1E1,6.22E2,3.12E2,2.2E1,1E0,3.8E1,1.03E2,1.212E3,2.937E3,3.22E2,9.23E2,9.9E1,4.8E1,8E0,2E0,4E1,9.8E1,1.22E2,9.5E1,3.5E1,3.64E2,1.4E1,5.43E2],"tree_param":{"num_deleted":"0","num_feature":"15","num_nodes":"121","size_leaf_vector":"1"}},{"base_weights":[5.529859E0,1.3378553E3,-2.9781644E2,2.4663357E3,1.8405702E2,-3.5435907E2,6.4111567E3,2.7209094E3,-2.7215234E3,-8.99613E2,6.0695386E2,-2.0989143E3,-1.4717577E2,4.8802114E3,9.080049E3,2.0049132E3,3.6974438E3,-3.3360164E3,1.7053611E3,-2.4500844E2,-1.6499741E3,-1.6454114E3,8.9006805E2,-2.3251426E3,1.4944919E2,-1.7135065E3,8.041254E1,3.0458313E1,5.617555E3,1.113664E4,5.850394E3,4.4350055E2,3.0575374E3,5.0557393E3,2.1800017E3,-4.0751128E3,-1.3555734E3,1.2988766E3,-2.1024765E2,-5.217179E2,3.2803955E3,1.6287185E3,-1.7575908E3,-1.01316504E3,-4.0127354E3,5.521324E2,3.0534602E3,-2.7033813E3,-1.1179642E3,4.7545356E3,-3.6974265E2,-2.3803513E3,1.3114714E3,7.074995E2,-8.9973706E2,-7.4229193E2,7.417542E2,6.397403E3,1.113602E3,1.1787813E4,2.0535646E2,3.3276212E2,6.153059E3,9.517265E1,2.400847E3,7.864506E2,1.5647477E3,2.0007819E3,1.2878206E3,2.3822096E2,1.0335962E3,4.299139E2,-1.3430116E3,1.6357316E3,-6.896055E2,2.343756E2,-3.3949942E2,4.2608818E1,-6.7904565E2,1.6713726E3,1.8302734E1,2.5928127E1,7.8843115E2,-4.4269305E2,-8.5548364E2,-4.387005E2,9.7148096E2,-6.8494214E2,-2.1274207E3,-7.8816156E2,2.0689302E2,3.8484628E2,1.5803583E3,-9.4821344E2,-5.529728E2,1.6871017E3,-3.7112463E2,-4.9713507E2,2.6121497E2,5.182538E2,-8.496193E2,1.551901E2,2.5922336E3,1.600643E3,1.43168E2,-4.6381418E2,5.235357E2,8.81318E1,3.723416E2,1.0287019E3,2.1520867E3,-1.3694823E3,1.6301149E3,5.763548E2,3.7066035E3,4.823048E2,1.9260367E3],"categories":[],"categories_nodes":[],"categories_segments":[],"categories_sizes":[],"default_left":[0,0,0,0,0,0,0,0,0,0,0,0,0,0,0,0,0,0,0,0,0,0,0,0,0,0,0,0,0,0,0,0,0,0,0,0,0,0,0,0,0,0,0,0,0,0,0,0,0,0,0,0,0,0,0,0,0,0,0,0,0,0,0,0,0,0,0,0,0,0,0,0,0,0,0,0,0,0,0,0,0,0,0,0,0,0,0,0,0,0,0,0,0,0,0,0,0,0,0,0,0,0,0,0,0,0,0,0,0,0,0,0,0,0,0,0,0],"id":5,"left_children":[1,3,5,7,9,11,13,15,17,19,21,23,25,27,29,31,33,35,37,39,41,43,45,47,49,51,53,55,57,59,61,63,65,67,69,71,73,-1,75,77,79,81,83,85,87,89,91,93,95,-1,97,99,101,103,105,-1,107,109,111,113,-1,-1,115,-1,-1,-1,-1,-1,-1,-1,-1,-1,-1,-1,-1,-1,-1,-1,-1,-1,-1,-1,-1,-1,-1,-1,-1,-1,-1,-1,-1,-1,-1,-1,-1,-1,-1,-1,-1,-1,-1,-1,-1,-1,-1,-1,-1,-1,-1,-1,-1,-1,-1,-1,-1,-1,-1],"loss_changes":[4.7464023E9,2.8353864E9,3.6310676E9,1.4614871E9,4.945725E8,3.4286986E9,2.825618E8,7.26742E8,1.471441E8,1.4842624E8,4.9630163E8,5.1255142E8,3.0234322E9,1.8935334E8,1.2082458E8,9.97941E8,9.020616E8,6.180781E7,3.609924E7,1.6072002E8,5.2613376E7,1.261501E8,5.0276435E8,4.147676E8,7.638837E8,2.1736192E9,4.552654E9,1.6088357E7,1.544462E8,1.0082918E8,1.1829856E7,2.3225042E8,3.279424E8,2.5822413E8,3.6728346E8,7.941248E7,1.0242344E8,0E0,5.4520385E6,1.7604768E8,8.8161544E7,7.479577E6,3.805059E7,1.384086E8,7.965658E7,2.6325376E8,3.5788634E8,2.6795827E8,1.836278E8,0E0,1.4676397E8,1.6415094E9,1.1305713E9,4.8112087E9,4.9428567E9,0E0,1.2013928E6,6.5262464E7,2.2106021E8,6.0257536E7,0E0,0E0,4.24528E6,0E0,0E0,0E0,0E0,0E0,0E0,0E0,0E0,0E0,0E0,0E0,0E0,0E0,0E0,0E0,0E0,0E0,0E0,0E0,0E0,0E0,0E0,0E0,0E0,0E0,0E0,0E0,0E0,0E0,0E0,0E0,0E0,0E0,0E0,0E0,0E0,0E0,0E0,0E0,0E0,0E0,0E0,0E0,0E0,0E0,0E0,0E0,0E0,0E0,0E0,0E0,0E0,0E0,0E0],"parents":[2147483647,0,0,1,1,2,2,3,3,4,4,5,5,6,6,7,7,8,8,9,9,10,10,11,11,12,12,13,13,14,14,15,15,16,16,17,17,18,18,19,19,20,20,21,21,22,22,23,23,24,24,25,25,26,26,27,27,28,28,29,29,30,30,31,31,32,32,33,33,34,34,35,35,36,36,38,38,39,39,40,40,41,41,42,42,43,43,44,44,45,45,46,46,47,47,48,48,50,50,51,51,52,52,53,53,54,54,56,56,57,57,58,58,59,59,62,62],"right_children":[2,4,6,8,10,12,14,16,18,20,22,24,26,28,30,32,34,36,38,40,42,44,46,48,50,52,54,56,58,60,62,64,66,68,70,72,74,-1,76,78,80,82,84,86,88,90,92,94,96,-1,98,100,102,104,106,-1,108,110,112,114,-1,-1,116,-1,-1,-1,-1,-1,-1,-1,-1,-1,-1,-1,-1,-1,-1,-1,-1,-1,-1,-1,-1,-1,-1,-1,-1,-1,-1,-1,-1,-1,-1,-1,-1,-1,-1,-1,-1,-1,-1,-1,-1,-1,-1,-1,-1,-1,-1,-1,-1,-1,-1,-1,-1,-1,-1],"split_conditions":[2E0,1.3E1,5E0,1.1E1,3.76E2,1.5E0,2.45E3,6.37E2,2E0,1.7E1,4E0,4.2E1,1E0,1E1,1.1E1,7.3E2,6.91E2,3.343E3,4.63E2,2E0,4E0,3.17E3,2E0,2E0,6E0,4.2E1,1.1E1,7E0,5.28E2,5.467E3,1E0,2E0,1.8E1,1.412E3,6.87E2,4E0,3.961E3,1.2988766E3,1.033E3,2.11E2,1.5E1,2E0,2.1E0,2.3E0,2E0,1E1,2.727E3,2.759E3,5E0,4.7545356E3,7E0,3.33E2,6.3E2,8E0,2E0,-7.4229193E2,8E0,2.68E2,1E0,1.62E2,2.0535646E2,3.3276212E2,1.62E2,9.517265E1,2.400847E3,7.864506E2,1.5647477E3,2.0007819E3,1.2878206E3,2.3822096E2,1.0335962E3,4.299139E2,-1.3430116E3,1.6357316E3,-6.896055E2,2.343756E2,-3.3949942E2,4.2608818E1,-6.7904565E2,1.6713726E3,1.8302734E1,2.5928127E1,7.8843115E2,-4.4269305E2,-8.5548364E2,-4.387005E2,9.7148096E2,-6.8494214E2,-2.1274207E3,-7.8816156E2,2.0689302E2,3.8484628E2,1.5803583E3,-9.4821344E2,-5.529728E2,1.6871017E3,-3.7112463E2,-4.9713507E2,2.6121497E2,5.182538E2,-8.496193E2,1.551901E2,2.5922336E3,1.600643E3,1.43168E2,-4.6381418E2,5.235357E2,8.81318E1,3.723416E2,1.0287019E3,2.1520867E3,-1.3694823E3,1.6301149E3,5.763548E2,3.7066035E3,4.823048E2,1.9260367E3],"split_indices":[4,14,4,13,1,11,5,1,6,14,2,0,13,14,14,10,1,5,1,6,0,5,7,6,14,0,13,0,10,5,3,7,0,5,10,2,5,0,5,1,14,2,11,11,11,0,5,5,0,0,2,10,1,14,6,0,9,5,3,1,0,0,1,0,0,0,0,0,0,0,0,0,0,0,0,0,0,0,0,0,0,0,0,0,0,0,0,0,0,0,0,0,0,0,0,0,0,0,0,0,0,0,0,0,0,0,0,0,0,0,0,0,0,0,0,0,0],"split_type":[0,0,0,0,0,0,0,0,0,0,0,0,0,0,0,0,0,0,0,0,0,0,0,0,0,0,0,0,0,0,0,0,0,0,0,0,0,0,0,0,0,0,0,0,0,0,0,0,0,0,0,0,0,0,0,0,0,0,0,0,0,0,0,0,0,0,0,0,0,0,0,0,0,0,0,0,0,0,0,0,0,0,0,0,0,0,0,0,0,0,0,0,0,0,0,0,0,0,0,0,0,0,0,0,0,0,0,0,0,0,0,0,0,0,0,0,0],"sum_hessian":[1.1742E4,2.177E3,9.565E3,1.1E3,1.077E3,9.486E3,7.9E1,1.049E3,5.1E1,3.02E2,7.75E2,1.006E3,8.48E3,5.2E1,2.7E1,6.07E2,4.42E2,4.5E1,6E0,1.62E2,1.4E2,8.6E1,6.89E2,9.14E2,9.2E1,1.075E3,7.405E3,7E0,4.5E1,1.5E1,1.2E1,2.45E2,3.62E2,2.32E2,2.1E2,3.2E1,1.3E1,2E0,4E0,1.51E2,1.1E1,4E0,1.36E2,6.9E1,1.7E1,5.97E2,9.2E1,6.95E2,2.19E2,2E0,9E1,8.81E2,1.94E2,4.516E3,2.889E3,1E0,6E0,3.8E1,7E0,1.4E1,1E0,1E0,1.1E1,2.42E2,3E0,3.03E2,5.9E1,7.2E1,1.6E2,1.01E2,1.09E2,2E0,3E1,1E0,1.2E1,2E0,2E0,1.1E2,4.1E1,6E0,5E0,2E0,2E0,1.1E2,2.6E1,6.3E1,6E0,1.2E1,5E0,2.4E1,5.73E2,5.2E1,4E1,4.52E2,2.43E2,3E0,2.16E2,4.4E1,4.6E1,8.7E1,7.94E2,1.76E2,1.8E1,2.13E2,4.303E3,2.322E3,5.67E2,4E0,2E0,9E0,2.9E1,3E0,4E0,1E0,1.3E1,1E0,1E1],"tree_param":{"num_deleted":"0","num_feature":"15","num_nodes":"117","size_leaf_vector":"1"}},{"base_weights":[6.361803E0,6.5134863E2,-4.310652E2,1.6504749E3,3.0978968E1,-8.9640814E2,5.5481514E1,2.256183E3,-1.0662987E2,-9.9416756E1,4.5594673E3,-1.9489077E3,-5.018313E2,8.0214E2,-5.5591925E2,-7.3751724E1,2.845753E3,4.9544204E3,-5.536375E2,-4.324879E2,9.839586E2,8.439315E3,2.8085073E3,-2.1865156E3,4.6915537E3,-2.8314202E3,-3.7921674E2,-2.6662556E3,1.1209001E3,1.0464192E2,-1.451404E3,-2.6535881E3,1.7534229E3,1.4263877E3,3.5397424E3,3.2683728E3,1.0024088E4,7.5167515E3,-8.0330597E2,1.9157358E3,-6.270835E2,5.8051147E3,3.6649338E2,1.0596915E4,2.5298027E3,6.805623E3,1.1237578E3,-3.3028018E3,-1.5986915E3,-3.9173013E2,4.9128594E3,-6.2411167E3,-2.3324065E3,7.600385E1,-1.0080113E3,2.333027E3,-4.391094E3,-6.642282E2,1.4580491E3,1.4663701E3,-3.355564E2,-1.6562458E3,1.9377721E3,-1.0663048E3,1.2102905E3,1.4533848E3,1.7594213E1,-1.5984749E2,8.051468E2,8.1425323E2,1.8831063E3,-7.7707666E2,1.2045801E3,3.2111553E3,6.878977E2,4.6504547E2,2.7455151E3,-3.6565347E2,6.63253E2,2.4936266E2,2.052211E3,-1.9948073E2,1.8967411E3,2.2079001E3,-6.905584E0,4.572067E2,-2.1078078E2,4.2936665E3,1.8580344E3,4.00834E2,1.2221743E3,1.1687018E3,4.586714E3,7.388154E2,-4.3516547E2,-5.16539E2,-1.2636472E3,-1.4694684E0,-6.030263E2,1.666924E3,9.970817E2,-9.6572577E2,-2.196637E3,-3.774449E2,-1.0099349E3,2.29174E2,-3.4007855E2,-4.8884705E2,-6.1085407E1,1.35641E3,-1.2744203E3,-1.3778828E3,1.0393365E3,-4.799671E1,-1.1443885E3,2.320699E3,3.849493E2,1.2635833E3,1.20162865E2,4.337899E2,-2.5488889E2,-2.710319E2,-7.7403107E2,-8.9650696E2,1.3993958E3],"categories":[],"categories_nodes":[],"categories_segments":[],"categories_sizes":[],"default_left":[0,0,0,0,0,0,0,0,0,0,0,0,0,0,0,0,0,0,0,0,0,0,0,0,0,0,0,0,0,0,0,0,0,0,0,0,0,0,0,0,0,0,0,0,0,0,0,0,0,0,0,0,0,0,0,0,0,0,0,0,0,0,0,0,0,0,0,0,0,0,0,0,0,0,0,0,0,0,0,0,0,0,0,0,0,0,0,0,0,0,0,0,0,0,0,0,0,0,0,0,0,0,0,0,0,0,0,0,0,0,0,0,0,0,0,0,0,0,0,0,0,0,0,0,0],"id":6,"left_children":[1,3,5,7,9,11,13,15,17,19,21,23,25,27,29,31,33,35,37,39,41,43,45,47,49,51,53,55,57,59,61,63,65,67,69,71,73,75,77,79,81,83,85,87,89,91,93,95,97,-1,99,101,103,105,107,109,111,113,115,117,119,121,123,-1,-1,-1,-1,-1,-1,-1,-1,-1,-1,-1,-1,-1,-1,-1,-1,-1,-1,-1,-1,-1,-1,-1,-1,-1,-1,-1,-1,-1,-1,-1,-1,-1,-1,-1,-1,-1,-1,-1,-1,-1,-1,-1,-1,-1,-1,-1,-1,-1,-1,-1,-1,-1,-1,-1,-1,-1,-1,-1,-1,-1,-1],"loss_changes":[3.3133878E9,2.9416512E9,1.5844744E9,1.9351245E9,1.7300146E9,1.4845212E9,1.5626147E9,1.8573972E9,1.0592502E9,1.028101E9,5.3336166E8,1.5486392E9,7.42451E8,1.706697E9,1.113397E9,1.2962372E9,1.057792E9,2.920501E8,8.724545E8,9.969041E8,1.9923932E9,2.9195098E8,3.8293216E8,6.128415E8,5.154125E7,2.0663622E8,7.0823494E8,1.1312288E9,8.507868E8,6.502747E8,5.579112E8,7.010971E8,8.431752E8,8.7846534E8,1.6190597E9,1.4167382E8,2.2753984E7,1.1263085E8,5.262381E8,8.863043E8,5.3373594E8,6.8873984E8,7.373888E8,2.0584205E8,9.302308E6,3.6010662E8,1.48342E8,4.5856077E8,4.0585626E8,0E0,1.528416E7,2.8698752E7,1.2350976E8,1.1957536E9,5.1907814E8,5.0886374E8,1.6971789E8,3.5681466E8,1.2943304E9,7.737844E8,7.522116E8,5.220654E8,6.3185594E8,0E0,0E0,0E0,0E0,0E0,0E0,0E0,0E0,0E0,0E0,0E0,0E0,0E0,0E0,0E0,0E0,0E0,0E0,0E0,0E0,0E0,0E0,0E0,0E0,0E0,0E0,0E0,0E0,0E0,0E0,0E0,0E0,0E0,0E0,0E0,0E0,0E0,0E0,0E0,0E0,0E0,0E0,0E0,0E0,0E0,0E0,0E0,0E0,0E0,0E0,0E0,0E0,0E0,0E0,0E0,0E0,0E0,0E0,0E0,0E0,0E0,0E0],"parents":[2147483647,0,0,1,1,2,2,3,3,4,4,5,5,6,6,7,7,8,8,9,9,10,10,11,11,12,12,13,13,14,14,15,15,16,16,17,17,18,18,19,19,20,20,21,21,22,22,23,23,24,24,25,25,26,26,27,27,28,28,29,29,30,30,31,31,32,32,33,33,34,34,35,35,36,36,37,37,38,38,39,39,40,40,41,41,42,42,43,43,44,44,45,45,46,46,47,47,48,48,50,50,51,51,52,52,53,53,54,54,55,55,56,56,57,57,58,58,59,59,60,60,61,61,62,62],"right_children":[2,4,6,8,10,12,14,16,18,20,22,24,26,28,30,32,34,36,38,40,42,44,46,48,50,52,54,56,58,60,62,64,66,68,70,72,74,76,78,80,82,84,86,88,90,92,94,96,98,-1,100,102,104,106,108,110,112,114,116,118,120,122,124,-1,-1,-1,-1,-1,-1,-1,-1,-1,-1,-1,-1,-1,-1,-1,-1,-1,-1,-1,-1,-1,-1,-1,-1,-1,-1,-1,-1,-1,-1,-1,-1,-1,-1,-1,-1,-1,-1,-1,-1,-1,-1,-1,-1,-1,-1,-1,-1,-1,-1,-1,-1,-1,-1,-1,-1,-1,-1,-1,-1,-1,-1],"split_conditions":[1.1E1,7E0,2E0,1.2E1,9E0,1.7E1,6E0,1E0,2.59E2,1.4E1,7E0,5E0,2.6E1,1E0,4.51E2,1.015E3,4E0,2.1E0,4E0,2.71E2,7E0,1E1,1.074E3,1E1,3E0,1E0,5.84E2,6.45E2,2.11E2,2.59E2,7.61E2,7.69E2,4E0,2.376E3,4E0,3E0,7.43E2,7.39E2,1E0,2.5E0,3E0,5.56E2,5E0,3.94E2,1.8E1,2E0,9E0,5.28E2,1.2E1,-3.9173013E2,4.75E2,2.6E1,1.2E1,1.5E1,5E0,3.249E3,4.1E1,2.3E0,2.34E2,1.3E1,1.339E3,2.45E3,3E0,-1.0663048E3,1.2102905E3,1.4533848E3,1.7594213E1,-1.5984749E2,8.051468E2,8.1425323E2,1.8831063E3,-7.7707666E2,1.2045801E3,3.2111553E3,6.878977E2,4.6504547E2,2.7455151E3,-3.6565347E2,6.63253E2,2.4936266E2,2.052211E3,-1.9948073E2,1.8967411E3,2.2079001E3,-6.905584E0,4.572067E2,-2.1078078E2,4.2936665E3,1.8580344E3,4.00834E2,1.2221743E3,1.1687018E3,4.586714E3,7.388154E2,-4.3516547E2,-5.16539E2,-1.2636472E3,-1.4694684E0,-6.030263E2,1.666924E3,9.970817E2,-9.6572577E2,-2.196637E3,-3.774449E2,-1.0099349E3,2.29174E2,-3.4007855E2,-4.8884705E2,-6.1085407E1,1.35641E3,-1.2744203E3,-1.3778828E3,1.0393365E3,-4.799671E1,-1.1443885E3,2.320699E3,3.849493E2,1.2635833E3,1.20162865E2,4.337899E2,-2.5488889E2,-2.710319E2,-7.7403107E2,-8.9650696E2,1.3993958E3],"split_indices":[14,2,11,13,2,0,2,13,10,9,9,4,5,13,1,5,2,11,0,10,14,14,5,0,5,13,10,10,1,10,1,10,2,5,4,5,1,5,6,11,6,1,13,10,0,4,14,10,14,0,10,0,9,14,2,5,0,11,1,14,5,5,13,0,0,0,0,0,0,0,0,0,0,0,0,0,0,0,0,0,0,0,0,0,0,0,0,0,0,0,0,0,0,0,0,0,0,0,0,0,0,0,0,0,0,0,0,0,0,0,0,0,0,0,0,0,0,0,0,0,0,0,0,0,0],"split_type":[0,0,0,0,0,0,0,0,0,0,0,0,0,0,0,0,0,0,0,0,0,0,0,0,0,0,0,0,0,0,0,0,0,0,0,0,0,0,0,0,0,0,0,0,0,0,0,0,0,0,0,0,0,0,0,0,0,0,0,0,0,0,0,0,0,0,0,0,0,0,0,0,0,0,0,0,0,0,0,0,0,0,0,0,0,0,0,0,0,0,0,0,0,0,0,0,0,0,0,0,0,0,0,0,0,0,0,0,0,0,0,0,0,0,0,0,0,0,0,0,0,0,0,0,0],"sum_hessian":[1.1742E4,4.745E3,6.997E3,1.817E3,2.928E3,3.576E3,3.421E3,1.351E3,4.66E2,2.847E3,8.1E1,9.74E2,2.602E3,1.54E3,1.881E3,2.73E2,1.078E3,3.7E1,4.29E2,2.178E3,6.69E2,2.4E1,5.7E1,9.41E2,3.3E1,1.29E2,2.473E3,1.29E2,1.411E3,1.083E3,7.98E2,1.13E2,1.6E2,3.55E2,7.23E2,2.9E1,8E0,1.2E1,4.17E2,1.66E2,2.012E3,7.5E1,5.94E2,1.7E1,7E0,1.6E1,4.1E1,3.23E2,6.18E2,1E0,3.2E1,1.5E1,1.14E2,1.435E3,1.038E3,3.3E1,9.6E1,2.24E2,1.187E3,2.64E2,8.19E2,7.53E2,4.5E1,1E2,1.3E1,5.6E1,1.04E2,1.39E2,2.16E2,5.57E2,1.66E2,3E0,2.6E1,7E0,1E0,3E0,9E0,3.67E2,5E1,1.37E2,2.9E1,2.002E3,1E1,5.9E1,1.6E1,2.85E2,3.09E2,8E0,9E0,5E0,2E0,1.3E1,3E0,2.7E1,1.4E1,1.19E2,2.04E2,1.27E2,4.91E2,2.1E1,1.1E1,5E0,1E1,5.7E1,5.7E1,9.15E2,5.2E2,5.85E2,4.53E2,2.5E1,8E0,9.4E1,2E0,1.94E2,3E1,3.1E1,1.156E3,7.3E1,1.91E2,1.83E2,6.36E2,4.16E2,3.37E2,1.6E1,2.9E1],"tree_param":{"num_deleted":"0","num_feature":"15","num_nodes":"125","size_leaf_vector":"1"}},{"base_weights":[7.0101905E0,9.036269E2,-1.7757997E2,1.8234044E3,1.8834918E2,-2.6397366E2,1.9164725E3,6.0263843E3,1.529381E3,-1.2491199E3,9.251127E2,-2.6722354E3,-1.8662723E2,3.1812717E3,-9.136759E2,3.0274002E2,7.710581E3,-6.872889E3,1.6836619E3,-1.7700719E3,3.1395547E3,3.3545605E3,1.980464E2,-2.8436614E3,1.9498536E3,3.374625E1,-9.401684E2,-3.3899893E3,3.6136628E3,-4.114618E3,-4.86322E2,9.624303E2,-4.4882852E2,8.544187E3,1.00704816E3,-6.6415924E1,-7.8791675E3,5.5901875E3,1.2460934E3,-4.740455E3,-1.0318251E3,1.836608E3,6.9950283E3,1.1937365E3,5.2205625E3,2.4730144E3,-3.0845718E2,-3.615205E3,-2.0519502E3,3.3532612E3,-9.066846E1,-1.4139073E2,1.4499982E3,-1.4231023E3,1.1333938E3,-8.01584E3,6.496901E2,4.92909E3,2.0151658E3,-1.0852561E3,-6.988944E3,9.698611E2,-1.4798491E3,1.3202042E2,-7.0099164E2,-5.232729E2,2.7442378E3,2.2427297E3,-2.3860771E3,-4.6661984E2,-2.4829595E3,1.0380236E3,2.6742698E3,3.3883003E3,3.4825925E2,-1.7861864E3,-8.382728E2,-5.0169937E2,3.6177808E2,9.310696E1,1.213023E3,2.6189492E3,1.11636715E1,2.0243364E2,2.6840815E3,1.6599856E3,-3.4855806E3,-7.195459E2,1.0525441E3,-2.6943875E2,5.853264E2,-7.318766E2,-1.3083083E3,-8.834626E2,-2.1701096E2,-7.277677E2,8.189202E2,-4.176318E2,1.8091139E1,1.6373433E2,1.1105803E3,-2.722989E2,-7.3710004E2,4.929794E3,3.1541977E2,-1.8946466E2,-2.6941553E3,-2.2049046E2,8.731259E2,7.8834656E2,1.8664359E3,7.802941E2,-3.8586682E2,9.865306E2,-1.3101473E3,-2.588132E3,-1.0810637E3,-1.2740371E3,4.793088E2,-9.6163965E2,-1.8678796E2],"categories":[],"categories_nodes":[],"categories_segments":[],"categories_sizes":[],"default_left":[0,0,0,0,0,0,0,0,0,0,0,0,0,0,0,0,0,0,0,0,0,0,0,0,0,0,0,0,0,0,0,0,0,0,0,0,0,0,0,0,0,0,0,0,0,0,0,0,0,0,0,0,0,0,0,0,0,0,0,0,0,0,0,0,0,0,0,0,0,0,0,0,0,0,0,0,0,0,0,0,0,0,0,0,0,0,0,0,0,0,0,0,0,0,0,0,0,0,0,0,0,0,0,0,0,0,0,0,0,0,0,0,0,0,0,0,0,0,0,0,0],"id":7,"left_children":[1,3,5,7,9,11,13,15,17,19,21,23,25,27,29,31,33,35,37,39,41,43,45,47,49,51,53,55,57,59,61,-1,63,65,67,-1,69,71,73,75,77,79,81,83,85,87,89,91,93,-1,95,97,99,101,103,105,107,109,111,113,115,117,119,-1,-1,-1,-1,-1,-1,-1,-1,-1,-1,-1,-1,-1,-1,-1,-1,-1,-1,-1,-1,-1,-1,-1,-1,-1,-1,-1,-1,-1,-1,-1,-1,-1,-1,-1,-1,-1,-1,-1,-1,-1,-1,-1,-1,-1,-1,-1,-1,-1,-1,-1,-1,-1,-1,-1,-1,-1,-1],"loss_changes":[1.9437048E9,1.3187386E9,1.7624172E9,1.074558E9,1.196851E9,1.7418751E9,1.3846205E9,5.471309E8,1.0758415E9,8.8120576E8,1.3188137E9,2.3611763E8,1.505204E9,7.70892E8,1.6215123E8,3.2009976E7,2.3727206E8,9.865466E7,1.3724974E9,7.47265E8,1.9311536E8,6.872896E8,6.6447584E8,1.6422784E8,2.0813566E8,1.7399442E9,2.055471E9,3.22886E8,5.1784627E8,1.1431843E8,1.5623827E8,0E0,2.1165096E7,2.5801805E8,4.0724218E8,0E0,1.9793536E7,5.426829E8,6.094948E8,1.439607E8,3.9760573E8,1.0652541E8,1.2037955E8,3.198731E8,5.487598E8,5.3806355E8,6.306405E8,1.129897E8,1.6514125E8,0E0,7.248475E7,1.5749582E9,1.569956E9,8.845348E8,4.6945155E8,5.1316E7,3.3442448E7,3.9109888E8,2.2575565E8,1.29193304E8,7.732672E6,1.5089368E8,9.267538E7,0E0,0E0,0E0,0E0,0E0,0E0,0E0,0E0,0E0,0E0,0E0,0E0,0E0,0E0,0E0,0E0,0E0,0E0,0E0,0E0,0E0,0E0,0E0,0E0,0E0,0E0,0E0,0E0,0E0,0E0,0E0,0E0,0E0,0E0,0E0,0E0,0E0,0E0,0E0,0E0,0E0,0E0,0E0,0E0,0E0,0E0,0E0,0E0,0E0,0E0,0E0,0E0,0E0,0E0,0E0,0E0,0E0,0E0],"parents":[2147483647,0,0,1,1,2,2,3,3,4,4,5,5,6,6,7,7,8,8,9,9,10,10,11,11,12,12,13,13,14,14,15,15,16,16,17,17,18,18,19,19,20,20,21,21,22,22,23,23,24,24,25,25,26,26,27,27,28,28,29,29,30,30,32,32,33,33,34,34,36,36,37,37,38,38,39,39,40,40,41,41,42,42,43,43,44,44,45,45,46,46,47,47,48,48,50,50,51,51,52,52,53,53,54,54,55,55,56,56,57,57,58,58,59,59,60,60,61,61,62,62],"right_children":[2,4,6,8,10,12,14,16,18,20,22,24,26,28,30,32,34,36,38,40,42,44,46,48,50,52,54,56,58,60,62,-1,64,66,68,-1,70,72,74,76,78,80,82,84,86,88,90,92,94,-1,96,98,100,102,104,106,108,110,112,114,116,118,120,-1,-1,-1,-1,-1,-1,-1,-1,-1,-1,-1,-1,-1,-1,-1,-1,-1,-1,-1,-1,-1,-1,-1,-1,-1,-1,-1,-1,-1,-1,-1,-1,-1,-1,-1,-1,-1,-1,-1,-1,-1,-1,-1,-1,-1,-1,-1,-1,-1,-1,-1,-1,-1,-1,-1,-1,-1,-1],"split_conditions":[9E0,5E0,2E0,7E0,2E0,3E0,1.7E1,8.3E2,8.8E1,6.15E2,6.29E2,7.61E2,1.2E1,1.8E0,1E0,3E0,4E1,6.58E2,1.06E2,6E0,1E0,2.4E1,6E0,2.4E1,4E0,2.5E0,4.012E3,1.06E2,6.4E2,1.3E1,1.9E1,9.624303E2,1.5E0,2E0,5E0,-6.6415924E1,2.28E2,3E0,5E0,6.09E2,2.5E0,6.88E2,5E0,5E0,2.7E0,1.7E1,1E0,1E0,1E1,3.3532612E3,1E0,1E0,4.1E1,2.358E3,4.041E3,5E0,1.7E1,4E0,4.407E3,1.9E1,1.3E1,1.21E3,1E1,1.3202042E2,-7.0099164E2,-5.232729E2,2.7442378E3,2.2427297E3,-2.3860771E3,-4.6661984E2,-2.4829595E3,1.0380236E3,2.6742698E3,3.3883003E3,3.4825925E2,-1.7861864E3,-8.382728E2,-5.0169937E2,3.6177808E2,9.310696E1,1.213023E3,2.6189492E3,1.11636715E1,2.0243364E2,2.6840815E3,1.6599856E3,-3.4855806E3,-7.195459E2,1.0525441E3,-2.6943875E2,5.853264E2,-7.318766E2,-1.3083083E3,-8.834626E2,-2.1701096E2,-7.277677E2,8.189202E2,-4.176318E2,1.8091139E1,1.6373433E2,1.1105803E3,-2.722989E2,-7.3710004E2,4.929794E3,3.1541977E2,-1.8946466E2,-2.6941553E3,-2.2049046E2,8.731259E2,7.8834656E2,1.8664359E3,7.802941E2,-3.8586682E2,9.865306E2,-1.3101473E3,-2.588132E3,-1.0810637E3,-1.2740371E3,4.793088E2,-9.6163965E2,-1.8678796E2],"split_indices":[14,13,7,14,9,5,14,10,1,1,10,1,13,11,13,4,0,10,1,14,6,0,14,0,0,11,5,1,10,9,14,0,11,4,2,0,5,4,0,10,11,1,2,4,11,0,6,3,13,0,6,13,0,5,5,2,0,4,5,14,0,5,9,0,0,0,0,0,0,0,0,0,0,0,0,0,0,0,0,0,0,0,0,0,0,0,0,0,0,0,0,0,0,0,0,0,0,0,0,0,0,0,0,0,0,0,0,0,0,0,0,0,0,0,0,0,0,0,0,0,0],"split_type":[0,0,0,0,0,0,0,0,0,0,0,0,0,0,0,0,0,0,0,0,0,0,0,0,0,0,0,0,0,0,0,0,0,0,0,0,0,0,0,0,0,0,0,0,0,0,0,0,0,0,0,0,0,0,0,0,0,0,0,0,0,0,0,0,0,0,0,0,0,0,0,0,0,0,0,0,0,0,0,0,0,0,0,0,0,0,0,0,0,0,0,0,0,0,0,0,0,0,0,0,0,0,0,0,0,0,0,0,0,0,0,0,0,0,0,0,0,0,0,0,0],"sum_hessian":[1.1742E4,2.004E3,9.738E3,8.76E2,1.128E3,9.353E3,3.85E2,5.6E1,8.2E2,3.82E2,7.46E2,2.9E2,9.063E3,2.66E2,1.19E2,1.3E1,4.3E1,1.4E1,8.06E2,3.42E2,4E1,1.71E2,5.75E2,2.8E2,1E1,7.013E3,2.05E3,1.6E1,2.5E2,1.3E1,1.06E2,2E0,1.1E1,3.8E1,5E0,2E0,1.2E1,8E1,7.26E2,6.7E1,2.75E2,3.1E1,9E0,8E1,9.1E1,1.04E2,4.71E2,1.4E2,1.4E2,1E0,9E0,6.242E3,7.71E2,1.663E3,3.87E2,7E0,9E0,1.36E2,1.14E2,7E0,6E0,4.3E1,6.3E1,8E0,3E0,2E0,3.6E1,3E0,2E0,1E0,1.1E1,5E1,3E1,5E0,7.21E2,4E1,2.7E1,2.14E2,6.1E1,1.9E1,1.2E1,7E0,2E0,7.6E1,4E0,9E1,1E0,1.8E1,8.6E1,3.74E2,9.7E1,5.6E1,8.4E1,8.3E1,5.7E1,5E0,4E0,8.66E2,5.376E3,5.51E2,2.2E2,1.111E3,5.52E2,1E0,3.86E2,1E0,6E0,6E0,3E0,5E1,8.6E1,9.7E1,1.7E1,3E0,4E0,3E0,3E0,4E0,3.9E1,2E1,4.3E1],"tree_param":{"num_deleted":"0","num_feature":"15","num_nodes":"121","size_leaf_vector":"1"}},{"base_weights":[5.7656846E0,1.02374275E2,-1.1444137E3,-6.054802E2,2.767815E2,-1.2718438E3,8.2160626E2,-7.5981976E2,4.1130483E3,5.380742E2,-3.4595526E2,-2.268492E3,-1.078516E3,9.798565E2,-1.1823234E3,1.1477528E3,-9.982422E2,3.2348508E3,6.372773E3,1.377308E3,1.9387227E2,1.8763131E3,-5.904857E2,-2.8001462E3,-1.1075146E3,-7.9274866E2,-2.0863452E3,8.061098E1,1.491408E3,3.827696E3,2.6829837E2,-1.3494462E3,-2.3077817E0,4.1211426E2,3.750427E3,3.6472888E3,4.889814E3,6.4589044E2,2.683463E3,7.227609E2,-5.5972516E2,2.892765E3,6.13739E2,-6.677652E2,4.187563E3,-5.8175996E3,-2.4518064E3,-5.907729E2,-1.8769272E3,-2.9447851E1,-1.5059386E3,-2.4901694E3,-1.3063407E3,6.069281E2,-1.3363365E3,2.5821453E3,7.295111E2,1.8676879E3,1.5279625E2,6.255449E2,-5.1743414E2,2.1379253E2,-4.4303253E2,-1.8664229E2,9.360391E2,4.830973E2,-7.563241E2,1.1817169E3,-6.258003E2,1.6287894E3,2.2268547E2,7.1316124E1,7.159713E2,9.886712E2,5.694087E1,-3.604169E2,3.166926E2,6.435002E1,-4.4393796E2,-4.1987958E2,9.8001935E2,-1.2253018E3,3.9161905E2,-2.7206332E2,2.0141939E2,2.502429E3,5.580151E2,-2.4829453E3,-2.0246199E2,-8.7556177E2,-1.9570573E2,-3.051263E2,4.0446024E2,-4.5500943E2,1.27835686E2,-5.0562335E2,-1.307456E2,-4.6368027E2,-8.799627E2,-2.9522452E2,-1.5749061E3,-1.1795894E2,3.2918262E2,8.994141E-2,-4.811172E2,-7.3633545E1,9.2215924E2,-4.7832617E2,4.003558E2],"categories":[],"categories_nodes":[],"categories_segments":[],"categories_sizes":[],"default_left":[0,0,0,0,0,0,0,0,0,0,0,0,0,0,0,0,0,0,0,0,0,0,0,0,0,0,0,0,0,0,0,0,0,0,0,0,0,0,0,0,0,0,0,0,0,0,0,0,0,0,0,0,0,0,0,0,0,0,0,0,0,0,0,0,0,0,0,0,0,0,0,0,0,0,0,0,0,0,0,0,0,0,0,0,0,0,0,0,0,0,0,0,0,0,0,0,0,0,0,0,0,0,0,0,0,0,0,0,0],"id":8,"left_children":[1,3,5,7,9,11,13,15,17,19,21,23,25,27,-1,29,31,33,35,37,39,41,43,45,47,49,51,53,55,57,59,61,63,65,67,-1,69,71,73,75,77,79,81,83,85,87,89,91,-1,93,95,97,99,101,103,105,107,-1,-1,-1,-1,-1,-1,-1,-1,-1,-1,-1,-1,-1,-1,-1,-1,-1,-1,-1,-1,-1,-1,-1,-1,-1,-1,-1,-1,-1,-1,-1,-1,-1,-1,-1,-1,-1,-1,-1,-1,-1,-1,-1,-1,-1,-1,-1,-1,-1,-1,-1,-1],"loss_changes":[1.3049665E9,1.3376785E9,2.2902733E8,1.5630482E9,1.4146813E9,1.6229466E8,4.6068652E7,9.448726E8,1.1432998E8,1.7687478E9,1.3976774E9,8.207763E7,2.0513338E8,2.518034E7,0E0,5.4341414E8,6.453336E8,7.267648E7,9.496819E7,1.699735E9,1.7317888E9,3.254777E8,8.579686E8,8.453978E7,1.16033416E8,3.0535187E8,4.6514624E7,1.64721E7,2.7202328E7,4.503913E8,6.3729376E8,3.59189E8,9.347995E8,3.5691004E7,5.5556416E7,0E0,3.1770304E7,8.1152685E8,9.747369E8,1.6364986E9,1.2768302E9,2.3090522E8,3.7901978E8,7.306893E8,3.4220717E8,1.0822275E8,7.032429E7,3.6088984E7,0E0,1.8493765E8,5.496211E7,3.8569984E7,6.5997496E7,8.277978E6,2.144877E6,2.0219776E7,3.305973E7,0E0,0E0,0E0,0E0,0E0,0E0,0E0,0E0,0E0,0E0,0E0,0E0,0E0,0E0,0E0,0E0,0E0,0E0,0E0,0E0,0E0,0E0,0E0,0E0,0E0,0E0,0E0,0E0,0E0,0E0,0E0,0E0,0E0,0E0,0E0,0E0,0E0,0E0,0E0,0E0,0E0,0E0,0E0,0E0,0E0,0E0,0E0,0E0,0E0,0E0,0E0,0E0],"parents":[2147483647,0,0,1,1,2,2,3,3,4,4,5,5,6,6,7,7,8,8,9,9,10,10,11,11,12,12,13,13,15,15,16,16,17,17,18,18,19,19,20,20,21,21,22,22,23,23,24,24,25,25,26,26,27,27,28,28,29,29,30,30,31,31,32,32,33,33,34,34,36,36,37,37,38,38,39,39,40,40,41,41,42,42,43,43,44,44,45,45,46,46,47,47,49,49,50,50,51,51,52,52,53,53,54,54,55,55,56,56],"right_children":[2,4,6,8,10,12,14,16,18,20,22,24,26,28,-1,30,32,34,36,38,40,42,44,46,48,50,52,54,56,58,60,62,64,66,68,-1,70,72,74,76,78,80,82,84,86,88,90,92,-1,94,96,98,100,102,104,106,108,-1,-1,-1,-1,-1,-1,-1,-1,-1,-1,-1,-1,-1,-1,-1,-1,-1,-1,-1,-1,-1,-1,-1,-1,-1,-1,-1,-1,-1,-1,-1,-1,-1,-1,-1,-1,-1,-1,-1,-1,-1,-1,-1,-1,-1,-1,-1,-1,-1,-1,-1,-1],"split_conditions":[1E0,1.6E1,7.49E2,5E0,1.1E1,3.31E2,5.521E3,5E0,3.496E3,3.06E2,2.71E2,1E0,2.59E2,1E0,-1.1823234E3,5E0,5.03E2,1E1,4.388E3,3.368E3,8E0,5.9E2,1.4E1,1.1E1,2.3E0,1.9E1,2E0,2.59E2,1.8E1,1.2E1,7.1E1,1E0,4.066E3,1.1E1,6.41E2,3.6472888E3,5.467E3,2.4E0,1E0,1E0,3.219E3,1.4E2,1.76E2,1E0,1E0,8.76E2,5E0,1.76E2,-1.8769272E3,1.06E2,1E0,3E0,4.3E1,4E0,9.24E2,2E0,3.1E1,1.8676879E3,1.5279625E2,6.255449E2,-5.1743414E2,2.1379253E2,-4.4303253E2,-1.8664229E2,9.360391E2,4.830973E2,-7.563241E2,1.1817169E3,-6.258003E2,1.6287894E3,2.2268547E2,7.1316124E1,7.159713E2,9.886712E2,5.694087E1,-3.604169E2,3.166926E2,6.435002E1,-4.4393796E2,-4.1987958E2,9.8001935E2,-1.2253018E3,3.9161905E2,-2.7206332E2,2.0141939E2,2.502429E3,5.580151E2,-2.4829453E3,-2.0246199E2,-8.7556177E2,-1.9570573E2,-3.051263E2,4.0446024E2,-4.5500943E2,1.27835686E2,-5.0562335E2,-1.307456E2,-4.6368027E2,-8.799627E2,-2.9522452E2,-1.5749061E3,-1.1795894E2,3.2918262E2,8.994141E-2,-4.811172E2,-7.3633545E1,9.2215924E2,-4.7832617E2,4.003558E2],"split_indices":[8,0,1,4,13,5,5,0,5,1,10,6,10,7,0,2,1,14,5,5,2,1,13,14,11,14,6,10,14,14,1,7,5,13,10,0,5,11,6,13,5,1,5,6,6,10,2,5,0,1,3,13,0,4,5,9,0,0,0,0,0,0,0,0,0,0,0,0,0,0,0,0,0,0,0,0,0,0,0,0,0,0,0,0,0,0,0,0,0,0,0,0,0,0,0,0,0,0,0,0,0,0,0,0,0,0,0,0,0],"split_type":[0,0,0,0,0,0,0,0,0,0,0,0,0,0,0,0,0,0,0,0,0,0,0,0,0,0,0,0,0,0,0,0,0,0,0,0,0,0,0,0,0,0,0,0,0,0,0,0,0,0,0,0,0,0,0,0,0,0,0,0,0,0,0,0,0,0,0,0,0,0,0,0,0,0,0,0,0,0,0,0,0,0,0,0,0,0,0,0,0,0,0,0,0,0,0,0,0,0,0,0,0,0,0,0,0,0,0,0,0],"sum_hessian":[1.1742E4,1.0833E4,9.09E2,2.141E3,8.692E3,8.54E2,5.5E1,2.074E3,6.7E1,6.123E3,2.569E3,1.37E2,7.17E2,5.4E1,1E0,2.3E2,1.844E3,5E1,1.7E1,1.78E3,4.343E3,2.54E2,2.315E3,9.3E1,4.4E1,5.6E2,1.57E2,2E1,3.4E1,5.6E1,1.74E2,1.363E3,4.81E2,8E0,4.2E1,2E0,1.5E1,1.142E3,6.38E2,2.552E3,1.791E3,1.4E2,1.14E2,2.279E3,3.6E1,8E0,8.5E1,4.1E1,3E0,2.71E2,2.89E2,1.02E2,5.5E1,1.5E1,5E0,1.3E1,2.1E1,3.2E1,2.4E1,9.1E1,8.3E1,7.9E1,1.284E3,4.02E2,7.9E1,6E0,2E0,4.1E1,1E0,1.3E1,2E0,9.26E2,2.16E2,5.12E2,1.26E2,3.76E2,2.176E3,9.73E2,8.18E2,1.1E1,1.29E2,1.4E1,1E2,1.934E3,3.45E2,1.2E1,2.4E1,5E0,3E0,6.7E1,1.8E1,3.4E1,7E0,6.3E1,2.08E2,2.47E2,4.2E1,3.4E1,6.8E1,5.2E1,3E0,5E0,1E1,1E0,4E0,2E0,1.1E1,4E0,1.7E1],"tree_param":{"num_deleted":"0","num_feature":"15","num_nodes":"109","size_leaf_vector":"1"}},{"base_weights":[4.220103E0,3.139819E2,-3.487703E2,1.3973799E3,1.9623657E2,-8.487595E1,-7.317858E2,1.4948761E3,-4.146039E3,5.8793024E2,-1.9999397E2,-1.3126204E2,4.061305E3,-2.4709076E2,-9.821756E2,5.5248525E3,1.1718304E3,-1.254785E2,1.8912341E3,-8.23559E2,2.1719429E2,-4.7333206E2,3.1278973E2,1.0420592E4,2.4420945E3,2.3386388E2,-1.6045521E3,-1.3052109E3,1.13499596E2,4.02656E3,7.5485938E3,-2.582166E2,1.7659456E3,9.204895E2,-1.0133189E3,3.110805E3,2.2920905E2,1.7757749E3,-1.0622721E3,-3.1526373E2,8.6980194E2,-7.679189E2,1.0509763E2,8.0161273E2,-2.9288217E2,-7.5758E2,1.2999112E4,4.5682437E3,1.3133523E3,1.6484137E3,-1.432397E2,-4.6129535E2,-2.3015378E3,-3.175271E2,-1.4986836E3,-1.7371294E3,6.7753894E2,1.8696666E3,6.6982983E2,2.6001687E3,4.3996964E2,-7.01031E2,1.3766144E2,8.9293396E1,1.0310411E3,1.8979031E2,8.211711E2,-3.551907E2,1.613726E3,1.9038492E2,1.2338888E3,1.2423373E3,-3.3868826E2,-5.139981E2,9.139077E2,-3.4840402E2,1.2012054E3,4.9750404E0,-6.4496643E2,5.2098797E1,8.656674E2,-6.081745E2,-1.8368431E2,8.504961E0,8.9153204E2,3.2252924E2,-2.6378012E2,-6.3429456E2,2.8566988E1,4.555116E3,1.7259796E3,4.0894983E2,1.7241332E3,2.1989697E2,1.9380903E3,-3.9574203E2,7.47671E2,5.0615963E1,-5.4773254E2,-3.580356E2,6.0145636E2,-1.0649615E3,-4.480396E2,-3.9824042E2,1.9308855E2,-2.7269373E2,-6.410172E2,-8.3138556E2,-1.2747231E2,1.2038644E2,1.136782E3],"categories":[],"categories_nodes":[],"categories_segments":[],"categories_sizes":[],"default_left":[0,0,0,0,0,0,0,0,0,0,0,0,0,0,0,0,0,0,0,0,0,0,0,0,0,0,0,0,0,0,0,0,0,0,0,0,0,0,0,0,0,0,0,0,0,0,0,0,0,0,0,0,0,0,0,0,0,0,0,0,0,0,0,0,0,0,0,0,0,0,0,0,0,0,0,0,0,0,0,0,0,0,0,0,0,0,0,0,0,0,0,0,0,0,0,0,0,0,0,0,0,0,0,0,0,0,0,0,0,0,0],"id":9,"left_children":[1,3,5,7,9,11,13,15,-1,17,19,21,23,25,27,29,31,33,35,37,39,41,43,45,47,49,51,53,55,57,59,61,63,65,67,69,71,73,75,77,79,81,83,85,87,-1,89,91,93,95,97,99,101,103,105,107,109,-1,-1,-1,-1,-1,-1,-1,-1,-1,-1,-1,-1,-1,-1,-1,-1,-1,-1,-1,-1,-1,-1,-1,-1,-1,-1,-1,-1,-1,-1,-1,-1,-1,-1,-1,-1,-1,-1,-1,-1,-1,-1,-1,-1,-1,-1,-1,-1,-1,-1,-1,-1,-1,-1],"loss_changes":[1.2841236E9,7.976453E8,5.547421E8,9.3013606E8,8.759169E8,6.2578195E8,2.714884E8,7.8766426E8,0E0,2.638977E9,7.3014304E8,4.8864822E8,3.4524474E8,4.9917357E8,5.2256627E8,1.0605222E8,4.8133664E8,1.7050104E9,2.0343516E9,6.999433E8,5.84746E8,3.0969338E8,4.1472768E8,2.6649434E8,6.599653E7,3.016251E8,1.5830496E8,2.173664E8,3.5294688E8,9.686701E7,1.0975322E8,2.4998677E8,9.8030605E8,4.391236E8,1.0895968E9,1.434196E9,2.2680323E9,4.263731E8,5.221509E8,5.64407E8,1.06035334E9,2.3474195E8,1.3500246E8,3.5720883E8,4.427258E8,0E0,7.620032E6,2.9949328E7,5.7993676E7,3.0127437E8,2.3493075E8,1.4142451E8,1.1978278E8,1.8334795E8,3.5662912E8,1.0602874E8,2.2112077E8,0E0,0E0,0E0,0E0,0E0,0E0,0E0,0E0,0E0,0E0,0E0,0E0,0E0,0E0,0E0,0E0,0E0,0E0,0E0,0E0,0E0,0E0,0E0,0E0,0E0,0E0,0E0,0E0,0E0,0E0,0E0,0E0,0E0,0E0,0E0,0E0,0E0,0E0,0E0,0E0,0E0,0E0,0E0,0E0,0E0,0E0,0E0,0E0,0E0,0E0,0E0,0E0,0E0,0E0],"parents":[2147483647,0,0,1,1,2,2,3,3,4,4,5,5,6,6,7,7,9,9,10,10,11,11,12,12,13,13,14,14,15,15,16,16,17,17,18,18,19,19,20,20,21,21,22,22,23,23,24,24,25,25,26,26,27,27,28,28,29,29,30,30,31,31,32,32,33,33,34,34,35,35,36,36,37,37,38,38,39,39,40,40,41,41,42,42,43,43,44,44,46,46,47,47,48,48,49,49,50,50,51,51,52,52,53,53,54,54,55,55,56,56],"right_children":[2,4,6,8,10,12,14,16,-1,18,20,22,24,26,28,30,32,34,36,38,40,42,44,46,48,50,52,54,56,58,60,62,64,66,68,70,72,74,76,78,80,82,84,86,88,-1,90,92,94,96,98,100,102,104,106,108,110,-1,-1,-1,-1,-1,-1,-1,-1,-1,-1,-1,-1,-1,-1,-1,-1,-1,-1,-1,-1,-1,-1,-1,-1,-1,-1,-1,-1,-1,-1,-1,-1,-1,-1,-1,-1,-1,-1,-1,-1,-1,-1,-1,-1,-1,-1,-1,-1,-1,-1,-1,-1,-1,-1],"split_conditions":[1.2E1,2.59E2,2.403E3,2.7E0,5E0,2.7E0,5.28E2,1E0,-4.146039E3,4E0,2E1,2E0,8.43E2,1.9E1,4.992E3,6.3E2,1.6E0,2E0,2E1,1E0,3.114E3,7E0,7.23E2,3E0,9.43E2,2.11E2,3E0,1E0,1.7E1,3E0,7.92E2,7.19E2,2.1E1,5.07E3,9E0,1.1E1,1.47E2,7.9E1,5E0,2.668E3,1.4E1,1.2E1,2E0,2E1,3E0,-7.5758E2,6E0,4.31E2,2.332E3,9.5E1,2.59E2,3.321E3,1E0,5.47E2,4.44E2,1.9E0,7.14E2,1.8696666E3,6.6982983E2,2.6001687E3,4.3996964E2,-7.01031E2,1.3766144E2,8.9293396E1,1.0310411E3,1.8979031E2,8.211711E2,-3.551907E2,1.613726E3,1.9038492E2,1.2338888E3,1.2423373E3,-3.3868826E2,-5.139981E2,9.139077E2,-3.4840402E2,1.2012054E3,4.9750404E0,-6.4496643E2,5.2098797E1,8.656674E2,-6.081745E2,-1.8368431E2,8.504961E0,8.9153204E2,3.2252924E2,-2.6378012E2,-6.3429456E2,2.8566988E1,4.555116E3,1.7259796E3,4.0894983E2,1.7241332E3,2.1989697E2,1.9380903E3,-3.9574203E2,7.47671E2,5.0615963E1,-5.4773254E2,-3.580356E2,6.0145636E2,-1.0649615E3,-4.480396E2,-3.9824042E2,1.9308855E2,-2.7269373E2,-6.410172E2,-8.3138556E2,-1.2747231E2,1.2038644E2,1.136782E3],"split_indices":[14,10,5,11,13,11,10,7,0,4,0,11,10,14,5,1,11,4,0,7,5,13,10,5,5,1,4,3,0,9,1,5,0,5,2,0,1,1,4,5,9,0,7,14,13,0,2,5,5,1,10,5,8,1,1,11,1,0,0,0,0,0,0,0,0,0,0,0,0,0,0,0,0,0,0,0,0,0,0,0,0,0,0,0,0,0,0,0,0,0,0,0,0,0,0,0,0,0,0,0,0,0,0,0,0,0,0,0,0,0,0],"split_type":[0,0,0,0,0,0,0,0,0,0,0,0,0,0,0,0,0,0,0,0,0,0,0,0,0,0,0,0,0,0,0,0,0,0,0,0,0,0,0,0,0,0,0,0,0,0,0,0,0,0,0,0,0,0,0,0,0,0,0,0,0,0,0,0,0,0,0,0,0,0,0,0,0,0,0,0,0,0,0,0,0,0,0,0,0,0,0,0,0,0,0,0,0,0,0,0,0,0,0,0,0,0,0,0,0,0,0,0,0,0,0],"sum_hessian":[1.1742E4,6.254E3,5.488E3,6.12E2,5.642E3,3.25E3,2.238E3,6.09E2,3E0,2.837E3,2.805E3,3.215E3,3.5E1,7.63E2,1.475E3,4.4E1,5.65E2,1.834E3,1.003E3,1.124E3,1.681E3,1.816E3,1.399E3,6E0,2.9E1,5.64E2,1.99E2,1.139E3,3.36E2,2.7E1,1.7E1,1.66E2,3.99E2,8.42E2,9.92E2,5.78E2,4.25E2,9.4E1,1.03E3,9.26E2,7.55E2,1.203E3,6.13E2,7.74E2,6.25E2,1E0,5E0,9E0,2E1,1.18E2,4.46E2,7.6E1,1.23E2,1.87E2,9.52E2,7.8E1,2.58E2,1.1E1,1.6E1,1.4E1,3E0,4.2E1,1.24E2,2.13E2,1.86E2,7.28E2,1.14E2,9.67E2,2.5E1,1.67E2,4.11E2,1.09E2,3.16E2,2.5E1,6.9E1,1.011E3,1.9E1,7.85E2,1.41E2,5.62E2,1.93E2,1.31E2,1.072E3,5.98E2,1.5E1,6.66E2,1.08E2,1.09E2,5.16E2,3E0,2E0,3E0,6E0,1.9E1,1E0,2.6E1,9.2E1,3.77E2,6.9E1,5.9E1,1.7E1,4.7E1,7.6E1,9.1E1,9.6E1,4.96E2,4.56E2,4.3E1,3.5E1,2.38E2,2E1],"tree_param":{"num_deleted":"0","num_feature":"15","num_nodes":"111","size_leaf_vector":"1"}},{"base_weights":[4.253462E0,4.414921E2,-1.5455373E2,2.6968433E2,1.3357891E3,-1.5079178E3,-1.0890887E2,7.8895E2,-4.451404E1,4.9121274E3,9.572333E2,3.7669962E2,-1.7775858E3,-1.5950691E2,1.0528326E3,-1.1017119E3,1.1068458E3,-2.2031147E3,4.043377E1,6.191656E3,-3.2131804E3,-3.3161125E3,1.5622793E3,-3.1272977E2,2.4797354E3,-1.0221967E3,-2.3055544E3,2.0142395E2,-3.249209E2,1.8202738E3,-6.021567E2,4.962739E2,-2.5571692E3,1.5390457E3,-8.8923985E-1,1.1755887E3,-4.517795E3,-7.5774083E0,4.721997E3,1.1398935E4,4.757678E3,-3.731528E3,1.6215621E3,2.1709624E3,-2.19842E2,2.105432E3,-1.0679298E3,-6.6186914E2,4.133759E3,-1.2209177E3,6.008809E3,-1.502414E3,-3.0043853E3,-5.4105975E2,4.4986356E2,-4.4508035E2,5.081447E2,-3.0507983E3,2.1152727E3,-1.719365E3,2.1493483E2,-7.709588E2,4.8864874E2,3.248104E2,-9.802992E2,2.5408939E2,1.1318446E3,-2.4371034E2,6.030538E2,1.720399E3,-2.4176839E2,1.9220792E3,-1.499769E3,-1.6822632E2,1.1261986E2,2.3111218E3,-1.0135749E3,1.3495326E3,5.669982E3,-2.0333025E2,1.7494691E3,-1.4952004E3,-4.3991428E2,3.5512967E2,1.2114058E3,3.4662955E2,-9.516308E2,2.1283873E2,8.9251306E2,-8.494629E-1,-8.7944946E2,1.8124924E3,3.5773096E2,-2.066549E2,-6.889279E2,2.433033E3,2.7093137E2,-5.986656E2,3.0188602E2,-1.705636E3,-8.206503E2,-1.9079388E2,8.7571423E2,2.4262383E2,-1.8178555E2,1.296675E1,-2.1476416E2,-2.7362738E2,2.680795E2,-1.4553384E3,4.7448612E1,7.523604E2,-9.9281494E1,6.650228E2,-5.5593677E2,-1.8572131E2,1.3096274E3],"categories":[],"categories_nodes":[],"categories_segments":[],"categories_sizes":[],"default_left":[0,0,0,0,0,0,0,0,0,0,0,0,0,0,0,0,0,0,0,0,0,0,0,0,0,0,0,0,0,0,0,0,0,0,0,0,0,0,0,0,0,0,0,0,0,0,0,0,0,0,0,0,0,0,0,0,0,0,0,0,0,0,0,0,0,0,0,0,0,0,0,0,0,0,0,0,0,0,0,0,0,0,0,0,0,0,0,0,0,0,0,0,0,0,0,0,0,0,0,0,0,0,0,0,0,0,0,0,0,0,0,0,0,0,0,0,0],"id":10,"left_children":[1,3,5,7,9,11,13,15,17,19,21,23,25,27,29,31,33,35,37,39,-1,41,43,45,47,49,51,53,55,57,59,61,63,65,67,69,71,73,75,77,79,81,-1,83,85,87,89,-1,91,93,95,97,99,101,103,105,107,109,111,113,115,-1,-1,-1,-1,-1,-1,-1,-1,-1,-1,-1,-1,-1,-1,-1,-1,-1,-1,-1,-1,-1,-1,-1,-1,-1,-1,-1,-1,-1,-1,-1,-1,-1,-1,-1,-1,-1,-1,-1,-1,-1,-1,-1,-1,-1,-1,-1,-1,-1,-1,-1,-1,-1,-1,-1,-1],"loss_changes":[8.1546266E8,4.8040173E8,5.3201974E8,4.2847334E8,6.7763514E8,1.4347968E8,4.9011462E8,5.9624275E8,3.0026314E8,1.0258231E9,1.1867867E9,5.2971696E7,9.575347E7,4.7697312E8,4.430933E8,3.338585E8,4.0599213E8,4.9018947E8,3.542692E8,2.8178778E8,0E0,2.2667898E8,4.3546086E8,5.338194E7,7.887629E7,1.5124877E8,7.630746E7,4.6342838E8,5.4857786E8,3.4844992E8,1.0169717E8,2.4379314E8,1.9749597E8,9.3983386E8,3.916664E8,2.3949853E8,2.2663283E8,3.3091462E8,4.1248912E8,3.8082534E8,2.1992307E8,1.4872858E8,0E0,5.4632256E8,4.2186234E8,6.38698E6,4.365913E7,0E0,3.20776E7,5.6214736E7,2.4861576E7,8.737043E7,3.923565E7,2.0876902E8,7.136056E8,6.331601E8,3.790927E8,8.164788E7,2.169134E8,2.885264E7,2.2770216E8,0E0,0E0,0E0,0E0,0E0,0E0,0E0,0E0,0E0,0E0,0E0,0E0,0E0,0E0,0E0,0E0,0E0,0E0,0E0,0E0,0E0,0E0,0E0,0E0,0E0,0E0,0E0,0E0,0E0,0E0,0E0,0E0,0E0,0E0,0E0,0E0,0E0,0E0,0E0,0E0,0E0,0E0,0E0,0E0,0E0,0E0,0E0,0E0,0E0,0E0,0E0,0E0,0E0,0E0,0E0,0E0],"parents":[2147483647,0,0,1,1,2,2,3,3,4,4,5,5,6,6,7,7,8,8,9,9,10,10,11,11,12,12,13,13,14,14,15,15,16,16,17,17,18,18,19,19,21,21,22,22,23,23,24,24,25,25,26,26,27,27,28,28,29,29,30,30,31,31,32,32,33,33,34,34,35,35,36,36,37,37,38,38,39,39,40,40,41,41,43,43,44,44,45,45,46,46,48,48,49,49,50,50,51,51,52,52,53,53,54,54,55,55,56,56,57,57,58,58,59,59,60,60],"right_children":[2,4,6,8,10,12,14,16,18,20,22,24,26,28,30,32,34,36,38,40,-1,42,44,46,48,50,52,54,56,58,60,62,64,66,68,70,72,74,76,78,80,82,-1,84,86,88,90,-1,92,94,96,98,100,102,104,106,108,110,112,114,116,-1,-1,-1,-1,-1,-1,-1,-1,-1,-1,-1,-1,-1,-1,-1,-1,-1,-1,-1,-1,-1,-1,-1,-1,-1,-1,-1,-1,-1,-1,-1,-1,-1,-1,-1,-1,-1,-1,-1,-1,-1,-1,-1,-1,-1,-1,-1,-1,-1,-1,-1,-1,-1,-1,-1,-1],"split_conditions":[1E1,2.5E0,3E0,6E0,4.73E2,2E0,2E0,4.93E2,1E0,2.7E0,6.09E2,1E0,9E0,1.412E3,1.7E1,9E0,4.584E3,3.276E3,9E0,7.19E2,-3.2131804E3,1E0,4.293E3,1.7E1,1E0,7.8E2,1E0,1.6E0,5.102E3,1.8E0,4.01E2,3E0,1E0,3.908E3,5.322E3,6E0,1.6E0,4E0,7E0,1.94E2,1.569E3,4.467E3,1.6215621E3,2.978E3,1.095E3,7.07E2,2E0,-6.6186914E2,2.7E1,5.86E2,4E0,2.59E2,1.62E2,5E0,1.2E1,5.3E2,1.6E0,1.5E1,8.36E2,1E0,1E0,-7.709588E2,4.8864874E2,3.248104E2,-9.802992E2,2.5408939E2,1.1318446E3,-2.4371034E2,6.030538E2,1.720399E3,-2.4176839E2,1.9220792E3,-1.499769E3,-1.6822632E2,1.1261986E2,2.3111218E3,-1.0135749E3,1.3495326E3,5.669982E3,-2.0333025E2,1.7494691E3,-1.4952004E3,-4.3991428E2,3.5512967E2,1.2114058E3,3.4662955E2,-9.516308E2,2.1283873E2,8.9251306E2,-8.494629E-1,-8.7944946E2,1.8124924E3,3.5773096E2,-2.066549E2,-6.889279E2,2.433033E3,2.7093137E2,-5.986656E2,3.0188602E2,-1.705636E3,-8.206503E2,-1.9079388E2,8.7571423E2,2.4262383E2,-1.8178555E2,1.296675E1,-2.1476416E2,-2.7362738E2,2.680795E2,-1.4553384E3,4.7448612E1,7.523604E2,-9.9281494E1,6.650228E2,-5.5593677E2,-1.8572131E2,1.3096274E3],"split_indices":[14,11,5,2,10,4,7,5,7,11,10,3,9,5,14,14,5,5,2,5,0,6,5,14,6,1,3,11,5,11,1,9,3,5,5,14,11,4,9,1,5,5,0,5,10,1,7,0,0,10,0,10,1,4,13,10,11,14,10,4,3,0,0,0,0,0,0,0,0,0,0,0,0,0,0,0,0,0,0,0,0,0,0,0,0,0,0,0,0,0,0,0,0,0,0,0,0,0,0,0,0,0,0,0,0,0,0,0,0,0,0,0,0,0,0,0,0],"split_type":[0,0,0,0,0,0,0,0,0,0,0,0,0,0,0,0,0,0,0,0,0,0,0,0,0,0,0,0,0,0,0,0,0,0,0,0,0,0,0,0,0,0,0,0,0,0,0,0,0,0,0,0,0,0,0,0,0,0,0,0,0,0,0,0,0,0,0,0,0,0,0,0,0,0,0,0,0,0,0,0,0,0,0,0,0,0,0,0,0,0,0,0,0,0,0,0,0,0,0,0,0,0,0,0,0,0,0,0,0,0,0,0,0,0,0,0,0],"sum_hessian":[1.1742E4,3.128E3,8.614E3,2.625E3,5.03E2,2.8E2,8.334E3,9.89E2,1.636E3,4.7E1,4.56E2,3.5E1,2.45E2,7.987E3,3.47E2,1.42E2,8.47E2,6.1E1,1.575E3,4.4E1,3E0,5.6E1,4E2,2.7E1,8E0,1.02E2,1.43E2,2.51E3,5.477E3,2.37E2,1.1E2,6.8E1,7.4E1,6.09E2,2.38E2,2.5E1,3.6E1,1.56E3,1.5E1,8E0,3.6E1,5.4E1,2E0,2.98E2,1.02E2,6E0,2.1E1,2E0,6E0,1E2,2E0,6.8E1,7.5E1,6.29E2,1.881E3,4.787E3,6.9E2,1.3E1,2.24E2,4.6E1,6.4E1,1.8E1,5E1,1.2E1,6.2E1,4.66E2,1.43E2,1.7E2,6.8E1,7E0,1.8E1,1E0,3.5E1,6.38E2,9.22E2,1.1E1,4E0,5E0,3E0,6E0,3E1,3.4E1,2E1,1.96E2,1.02E2,7E1,3.2E1,3E0,3E0,1.4E1,7E0,3E0,3E0,6.8E1,3.2E1,1E0,1E0,5.7E1,1.1E1,5E0,7E1,6.13E2,1.6E1,1.404E3,4.77E2,1.708E3,3.079E3,1.47E2,5.43E2,8E0,5E0,1.93E2,3.1E1,1E0,4.5E1,5.4E1,1E1],"tree_param":{"num_deleted":"0","num_feature":"15","num_nodes":"117","size_leaf_vector":"1"}},{"base_weights":[3.9725873E0,8.7511826E1,-5.54562E2,7.655543E2,-1.6700384E1,-4.147776E2,-1.4701034E3,3.1184104E3,5.4382764E2,-1.4623752E3,3.1890007E1,-8.3703076E2,4.530728E1,-1.3589001E3,-3.7038079E3,3.491727E3,-8.300715E3,-1.0588054E3,7.4131805E2,-2.6201143E3,-7.215326E2,2.8919092E2,-2.654119E2,-1.1101548E3,9.1231287E2,5.366975E2,-4.93108E2,-1.2420118E3,-3.0282048E3,-1.2937906E2,-4.5772114E3,2.5159397E3,5.377093E3,-5.755964E2,-2.9365554E3,-7.680376E2,-5.6514316E3,2.658517E2,1.4190823E3,-4.606251E3,-1.6575035E3,-1.6346013E3,-2.742033E2,-1.3436357E2,9.878647E2,-3.4570044E2,1.1688635E3,-1.2195889E3,5.8502234E2,1.4339E3,-1.7200432E3,3.6490654E3,2.940087E2,-6.0112634E2,1.4887927E3,-1.6887927E3,-8.7065845E2,-8.727018E1,-3.6076648E3,-1.5637101E3,-1.14941826E2,1.0579518E3,8.18706E1,1.735982E3,-1.4662363E3,1.1319231E2,-5.0877518E2,-2.8970093E3,2.3040242E2,1.4915439E2,-5.612615E2,1.4117961E3,3.2775192E2,-1.5725723E3,-5.1786426E2,-8.581748E1,-1.5219343E3,5.592504E2,-5.186064E2,2.0569604E2,-2.2344643E2,1.266849E2,-2.4291792E2,6.065875E2,1.01388535E2,-1.1441747E2,8.7188153E2,-1.2797341E2,1.1051904E3,-3.476577E2,-1.0082989E3,5.0843094E2,1.5099109E1,5.3013116E2,-6.737343E2,-1.060593E3,1.6114122E2,4.2130377E2,1.8522745E3,7.2225235E1,1.2924161E3,-2.8268774E1,-3.7962646E2,7.2711475E2,-1.7848932E1,-6.040652E2,-3.1191368E1,-1.7359314E2,-7.5773016E2,1.85821E2,-2.2509259E2,-1.1364348E3,-2.9754083E2],"categories":[],"categories_nodes":[],"categories_segments":[],"categories_sizes":[],"default_left":[0,0,0,0,0,0,0,0,0,0,0,0,0,0,0,0,0,0,0,0,0,0,0,0,0,0,0,0,0,0,0,0,0,0,0,0,0,0,0,0,0,0,0,0,0,0,0,0,0,0,0,0,0,0,0,0,0,0,0,0,0,0,0,0,0,0,0,0,0,0,0,0,0,0,0,0,0,0,0,0,0,0,0,0,0,0,0,0,0,0,0,0,0,0,0,0,0,0,0,0,0,0,0,0,0,0,0,0,0,0,0,0,0],"id":11,"left_children":[1,3,5,7,9,11,13,15,17,19,21,23,25,27,29,31,33,35,37,39,41,43,45,47,49,51,53,55,57,-1,59,61,63,-1,-1,65,67,69,71,73,75,77,79,81,83,85,87,89,91,93,95,97,99,101,103,105,107,109,111,-1,-1,-1,-1,-1,-1,-1,-1,-1,-1,-1,-1,-1,-1,-1,-1,-1,-1,-1,-1,-1,-1,-1,-1,-1,-1,-1,-1,-1,-1,-1,-1,-1,-1,-1,-1,-1,-1,-1,-1,-1,-1,-1,-1,-1,-1,-1,-1,-1,-1,-1,-1,-1,-1],"loss_changes":[5.4797165E8,7.218785E8,1.9494131E8,7.083255E8,6.221444E8,2.5783725E8,4.514275E7,5.2774886E8,3.9483325E8,2.4512787E8,6.555714E8,3.3164186E8,1.6853245E8,3.409264E7,2.375028E7,1.9619904E8,1.9200192E7,1.7860763E8,3.5700256E8,2.0649523E8,7.184609E7,1.3596188E9,4.5826397E8,1.1183411E8,1.3152868E8,2.504543E8,6.597576E7,2.889184E7,2.0135016E7,0E0,1.6650144E7,1.7357645E8,1.880137E8,0E0,0E0,1.3879643E8,2.1310894E8,3.2369974E8,4.8541344E8,5.685709E7,3.5924166E8,2.231544E7,5.471781E7,1.0759016E9,1.1646696E9,4.3821504E8,8.482516E8,6.932173E7,2.18695E7,1.0082907E8,6.745712E7,1.2736902E8,6.5234564E7,9.719552E7,2.3304704E7,4.199467E7,4.783672E7,1.8703988E6,9.6328E5,0E0,0E0,0E0,0E0,0E0,0E0,0E0,0E0,0E0,0E0,0E0,0E0,0E0,0E0,0E0,0E0,0E0,0E0,0E0,0E0,0E0,0E0,0E0,0E0,0E0,0E0,0E0,0E0,0E0,0E0,0E0,0E0,0E0,0E0,0E0,0E0,0E0,0E0,0E0,0E0,0E0,0E0,0E0,0E0,0E0,0E0,0E0,0E0,0E0,0E0,0E0,0E0,0E0,0E0],"parents":[2147483647,0,0,1,1,2,2,3,3,4,4,5,5,6,6,7,7,8,8,9,9,10,10,11,11,12,12,13,13,14,14,15,15,16,16,17,17,18,18,19,19,20,20,21,21,22,22,23,23,24,24,25,25,26,26,27,27,28,28,30,30,31,31,32,32,35,35,36,36,37,37,38,38,39,39,40,40,41,41,42,42,43,43,44,44,45,45,46,46,47,47,48,48,49,49,50,50,51,51,52,52,53,53,54,54,55,55,56,56,57,57,58,58],"right_children":[2,4,6,8,10,12,14,16,18,20,22,24,26,28,30,32,34,36,38,40,42,44,46,48,50,52,54,56,58,-1,60,62,64,-1,-1,66,68,70,72,74,76,78,80,82,84,86,88,90,92,94,96,98,100,102,104,106,108,110,112,-1,-1,-1,-1,-1,-1,-1,-1,-1,-1,-1,-1,-1,-1,-1,-1,-1,-1,-1,-1,-1,-1,-1,-1,-1,-1,-1,-1,-1,-1,-1,-1,-1,-1,-1,-1,-1,-1,-1,-1,-1,-1,-1,-1,-1,-1,-1,-1,-1,-1,-1,-1,-1,-1],"split_conditions":[1.6E1,2.59E2,2.1E1,1E0,1.4E0,1E0,3.525E3,2.7E0,3.5E2,1.2E1,5E0,2.4E0,3E0,4.3E1,9.5E1,5.74E2,1E0,3.31E2,1E0,1.497E3,5.28E2,4E0,2E0,7.71E2,2E1,1E0,7.49E2,2.7E1,1.85E2,-1.2937906E2,1E0,3.3E1,1.3E1,-5.755964E2,-2.9365554E3,7E0,1.4E1,5.18E3,1E0,6.29E2,4.696E3,1E0,1.497E3,2E0,1.1E1,1.3E1,3.635E3,7.25E2,1.4E0,6.37E2,1E0,2.416E3,1.5E1,3.76E2,1.697E3,2.688E3,2.1E0,2E0,4.5E1,-1.5637101E3,-1.14941826E2,1.0579518E3,8.18706E1,1.735982E3,-1.4662363E3,1.1319231E2,-5.0877518E2,-2.8970093E3,2.3040242E2,1.4915439E2,-5.612615E2,1.4117961E3,3.2775192E2,-1.5725723E3,-5.1786426E2,-8.581748E1,-1.5219343E3,5.592504E2,-5.186064E2,2.0569604E2,-2.2344643E2,1.266849E2,-2.4291792E2,6.065875E2,1.01388535E2,-1.1441747E2,8.7188153E2,-1.2797341E2,1.1051904E3,-3.476577E2,-1.0082989E3,5.0843094E2,1.5099109E1,5.3013116E2,-6.737343E2,-1.060593E3,1.6114122E2,4.2130377E2,1.8522745E3,7.2225235E1,1.2924161E3,-2.8268774E1,-3.7962646E2,7.2711475E2,-1.7848932E1,-6.040652E2,-3.1191368E1,-1.7359314E2,-7.5773016E2,1.85821E2,-2.2509259E2,-1.1364348E3,-2.9754083E2],"split_indices":[14,10,14,7,11,6,5,11,5,14,13,11,4,0,1,1,3,5,3,5,10,4,7,1,14,7,1,0,1,0,3,0,13,0,0,2,14,5,13,10,5,9,5,4,14,13,5,1,11,1,8,5,9,1,5,5,11,4,0,0,0,0,0,0,0,0,0,0,0,0,0,0,0,0,0,0,0,0,0,0,0,0,0,0,0,0,0,0,0,0,0,0,0,0,0,0,0,0,0,0,0,0,0,0,0,0,0,0,0,0,0,0,0],"split_type":[0,0,0,0,0,0,0,0,0,0,0,0,0,0,0,0,0,0,0,0,0,0,0,0,0,0,0,0,0,0,0,0,0,0,0,0,0,0,0,0,0,0,0,0,0,0,0,0,0,0,0,0,0,0,0,0,0,0,0,0,0,0,0,0,0,0,0,0,0,0,0,0,0,0,0,0,0,0,0,0,0,0,0,0,0,0,0,0,0,0,0,0,0,0,0,0,0,0,0,0,0,0,0,0,0,0,0,0,0,0,0,0,0],"sum_hessian":[1.1742E4,1.0215E4,1.527E3,1.36E3,8.855E3,1.326E3,2.01E2,1.16E2,1.244E3,2.87E2,8.568E3,6.91E2,6.35E2,1.93E2,8E0,1.13E2,3E0,1.36E2,1.108E3,1.11E2,1.76E2,4.593E3,3.975E3,5.98E2,9.3E1,3.32E2,3.03E2,1.82E2,1.1E1,2E0,6E0,7.6E1,3.7E1,1E0,2E0,1.29E2,7E0,6.52E2,4.56E2,3.5E1,7.6E1,5.7E1,1.19E2,2.86E3,1.733E3,3.765E3,2.1E2,5.62E2,3.6E1,7.8E1,1.5E1,2.3E1,3.09E2,2.88E2,1.5E1,8.1E1,1.01E2,2E0,9E0,5E0,1E0,5.2E1,2.4E1,3.6E1,1E0,5.8E1,7.1E1,4E0,3E0,5.89E2,6.3E1,4E1,4.16E2,2.8E1,7E0,5.5E1,2.1E1,1E0,5.6E1,3.9E1,8E1,1.568E3,1.292E3,6.68E2,1.065E3,3.725E3,4E1,1.29E2,8.1E1,5.48E2,1.4E1,1.1E1,2.5E1,7.2E1,6E0,8E0,7E0,1.3E1,1E1,3.06E2,3E0,1.64E2,1.24E2,9E0,6E0,6.7E1,1.4E1,8.7E1,1.4E1,1E0,1E0,8E0,1E0],"tree_param":{"num_deleted":"0","num_feature":"15","num_nodes":"113","size_leaf_vector":"1"}},{"base_weights":[2.1020913E0,-1.00987054E3,3.852435E1,-1.5646036E3,9.397449E2,4.3614697E2,-7.4430244E1,-2.1352002E3,-3.8677274E2,4.1064453E3,4.994644E2,3.614424E2,2.9586313E3,-4.9892407E2,6.9784004E1,-1.7335148E3,-3.9500183E3,-1.2898838E3,2.4069065E3,9.7185474E2,-3.3296045E3,6.177191E1,9.426347E2,4.3058613E3,-5.1825415E2,-2.6573874E2,-2.25748E3,-3.3265453E1,8.5115155E2,-1.8256733E3,2.1729587E3,-4.388283E3,8.7230237E2,-1.6353427E3,3.2433323E3,3.3312422E3,-1.2294198E3,2.3322932E3,-5.931639E2,6.0437992E1,-3.7443296E3,8.1905646E2,-3.2797073E2,4.752716E3,7.075624E2,7.838735E3,2.6617576E3,-2.7405078E3,1.3768118E3,1.264492E2,-8.8380365E2,-3.236781E3,-1.2069868E3,-6.3318054E1,2.5895554E3,4.429413E3,5.7971484E2,-5.8123236E2,1.039411E3,-2.3429137E2,-1.4106189E3,-3.6176125E1,5.776456E2,-7.707005E2,-2.1228954E2,5.3370374E2,1.5847399E3,1.3472375E3,-9.482881E1,-2.1346602E2,-5.728128E2,-1.7185016E2,1.172721E3,-1.01191156E3,2.961877E2,-7.002839E2,-1.7359009E3,4.2629715E2,-1.6420088E2,1.4321257E3,-1.442263E2,-1.0427449E3,1.5558119E3,3.1509805E2,-3.4122415E2,5.245255E2,3.395425E3,8.458824E2,-4.5312848E2,8.721739E0,-1.3775221E3,1.8078619E3,-2.5276942E2,1.07308624E2,-2.9906363E2,-3.515037E2,2.3339091E2,-1.9045332E1,-1.0810245E3,-4.455518E2,1.144146E3,7.6870186E1,-9.096169E1,1.1624832E2,1.02217664E3,1.5441625E3,-1.0239295E2,-6.171006E2,2.4206915E2],"categories":[],"categories_nodes":[],"categories_segments":[],"categories_sizes":[],"default_left":[0,0,0,0,0,0,0,0,0,0,0,0,0,0,0,0,0,0,0,0,0,0,0,0,0,0,0,0,0,0,0,0,0,0,0,0,0,0,0,0,0,0,0,0,0,0,0,0,0,0,0,0,0,0,0,0,0,0,0,0,0,0,0,0,0,0,0,0,0,0,0,0,0,0,0,0,0,0,0,0,0,0,0,0,0,0,0,0,0,0,0,0,0,0,0,0,0,0,0,0,0,0,0,0,0,0,0,0,0],"id":12,"left_children":[1,3,5,7,9,11,13,15,17,-1,19,21,23,25,27,29,31,33,35,37,39,41,43,45,47,49,51,53,55,57,-1,59,61,63,65,67,69,71,73,-1,75,77,79,81,83,85,87,89,91,93,95,97,99,101,103,105,107,-1,-1,-1,-1,-1,-1,-1,-1,-1,-1,-1,-1,-1,-1,-1,-1,-1,-1,-1,-1,-1,-1,-1,-1,-1,-1,-1,-1,-1,-1,-1,-1,-1,-1,-1,-1,-1,-1,-1,-1,-1,-1,-1,-1,-1,-1,-1,-1,-1,-1,-1,-1],"loss_changes":[4.328662E8,4.4272896E8,5.0916966E8,2.128912E8,5.0393485E8,4.7154083E8,5.40529E8,1.4915558E8,2.6801989E8,0E0,1.6422045E8,4.2438483E8,3.3949133E8,9.1754566E8,5.307324E8,1.5965235E8,8.413907E7,1.3058714E8,9.148632E7,1.7171235E8,1.5398528E7,4.7515866E8,7.391265E8,2.811726E8,9.2210824E7,4.795742E8,2.656256E8,4.5922666E8,7.433687E8,1.1078035E8,0E0,3.594445E7,4.414965E6,6.3144496E7,8.518092E6,9.023413E7,7.54137E5,1.9921085E8,1.7028203E8,0E0,1.2407064E7,4.5067334E8,8.308604E8,1.891753E8,4.9572538E8,3.1925658E8,2.862632E7,5.140485E7,1.2890253E8,3.1493238E8,3.6831008E8,1.568352E8,1.844439E8,4.415428E8,1.1752102E8,1.866745E8,4.2995584E8,0E0,0E0,0E0,0E0,0E0,0E0,0E0,0E0,0E0,0E0,0E0,0E0,0E0,0E0,0E0,0E0,0E0,0E0,0E0,0E0,0E0,0E0,0E0,0E0,0E0,0E0,0E0,0E0,0E0,0E0,0E0,0E0,0E0,0E0,0E0,0E0,0E0,0E0,0E0,0E0,0E0,0E0,0E0,0E0,0E0,0E0,0E0,0E0,0E0,0E0,0E0,0E0],"parents":[2147483647,0,0,1,1,2,2,3,3,4,4,5,5,6,6,7,7,8,8,10,10,11,11,12,12,13,13,14,14,15,15,16,16,17,17,18,18,19,19,20,20,21,21,22,22,23,23,24,24,25,25,26,26,27,27,28,28,29,29,31,31,32,32,33,33,34,34,35,35,36,36,37,37,38,38,40,40,41,41,42,42,43,43,44,44,45,45,46,46,47,47,48,48,49,49,50,50,51,51,52,52,53,53,54,54,55,55,56,56],"right_children":[2,4,6,8,10,12,14,16,18,-1,20,22,24,26,28,30,32,34,36,38,40,42,44,46,48,50,52,54,56,58,-1,60,62,64,66,68,70,72,74,-1,76,78,80,82,84,86,88,90,92,94,96,98,100,102,104,106,108,-1,-1,-1,-1,-1,-1,-1,-1,-1,-1,-1,-1,-1,-1,-1,-1,-1,-1,-1,-1,-1,-1,-1,-1,-1,-1,-1,-1,-1,-1,-1,-1,-1,-1,-1,-1,-1,-1,-1,-1,-1,-1,-1,-1,-1,-1,-1,-1,-1,-1,-1,-1],"split_conditions":[8.8E1,2E0,2.63E2,1E0,7E0,2.48E2,3.83E2,4.81E3,9E0,4.1064453E3,1.5E1,3.368E3,2.9E1,3.57E2,2.5E0,4.777E3,2.6E1,5.74E2,1.4E1,2.229E3,1.4E1,6E0,3.496E3,1.1E1,9E0,1.8E0,1.3E1,5E0,3E0,1.327E3,2.1729587E3,4.89E2,3.3E1,2.416E3,2.376E3,3.586E3,1.2E1,5.81E2,2.915E3,6.0437992E1,1E0,1.3E1,6E0,6E0,1.095E3,5E0,9.88E2,3.2E1,1.1E1,1.5E1,1.9E1,3E0,5.442E3,8E0,6.43E2,1.8E1,3.93E2,-5.8123236E2,1.039411E3,-2.3429137E2,-1.4106189E3,-3.6176125E1,5.776456E2,-7.707005E2,-2.1228954E2,5.3370374E2,1.5847399E3,1.3472375E3,-9.482881E1,-2.1346602E2,-5.728128E2,-1.7185016E2,1.172721E3,-1.01191156E3,2.961877E2,-7.002839E2,-1.7359009E3,4.2629715E2,-1.6420088E2,1.4321257E3,-1.442263E2,-1.0427449E3,1.5558119E3,3.1509805E2,-3.4122415E2,5.245255E2,3.395425E3,8.458824E2,-4.5312848E2,8.721739E0,-1.3775221E3,1.8078619E3,-2.5276942E2,1.07308624E2,-2.9906363E2,-3.515037E2,2.3339091E2,-1.9045332E1,-1.0810245E3,-4.455518E2,1.144146E3,7.6870186E1,-9.096169E1,1.1624832E2,1.02217664E3,1.5441625E3,-1.0239295E2,-6.171006E2,2.4206915E2],"split_indices":[1,7,1,6,14,1,1,5,13,0,0,5,0,1,11,5,0,10,14,5,14,9,5,14,9,11,0,4,13,10,0,10,0,5,5,5,0,5,5,0,3,14,14,14,10,9,10,0,14,14,0,13,5,9,5,14,1,0,0,0,0,0,0,0,0,0,0,0,0,0,0,0,0,0,0,0,0,0,0,0,0,0,0,0,0,0,0,0,0,0,0,0,0,0,0,0,0,0,0,0,0,0,0,0,0,0,0,0,0],"split_type":[0,0,0,0,0,0,0,0,0,0,0,0,0,0,0,0,0,0,0,0,0,0,0,0,0,0,0,0,0,0,0,0,0,0,0,0,0,0,0,0,0,0,0,0,0,0,0,0,0,0,0,0,0,0,0,0,0,0,0,0,0,0,0,0,0,0,0,0,0,0,0,0,0,0,0,0,0,0,0,0,0,0,0,0,0,0,0,0,0,0,0,0,0,0,0,0,0,0,0,0,0,0,0,0,0,0,0,0,0],"sum_hessian":[1.1742E4,4.07E2,1.1335E4,3.17E2,9E1,2.507E3,8.828E3,2.13E2,1.04E2,2E0,8.8E1,2.436E3,7.1E1,2.238E3,6.59E3,1.76E2,3.7E1,7.9E1,2.5E1,7.9E1,9E0,1.608E3,8.28E2,5.1E1,2E1,1.977E3,2.61E2,5.823E3,7.67E2,1.75E2,1E0,3.4E1,3E0,7.4E1,5E0,2E1,5E0,4.2E1,3.7E1,1E0,8E0,5.46E2,1.062E3,4.7E1,7.81E2,1.5E1,3.6E1,9E0,1.1E1,1.21E3,7.67E2,1.34E2,1.27E2,5.758E3,6.5E1,5.3E1,7.14E2,1.72E2,3E0,3E0,3.1E1,2E0,1E0,3.6E1,3.8E1,4E0,1E0,1.5E1,5E0,4E0,1E0,1.5E1,2.7E1,1.3E1,2.4E1,6E0,2E0,3.79E2,1.67E2,3E1,1.032E3,2E0,4.5E1,6.59E2,1.22E2,6E0,9E0,3.5E1,1E0,4E0,5E0,3E0,8E0,1.004E3,2.06E2,6.54E2,1.13E2,1.4E1,1.2E2,1.21E2,6E0,2.469E3,3.289E3,1.8E1,4.7E1,4.6E1,7E0,5.6E1,6.58E2],"tree_param":{"num_deleted":"0","num_feature":"15","num_nodes":"109","size_leaf_vector":"1"}},{"base_weights":[2.5921562E0,-1.581063E3,2.0180527E1,-8.495217E1,-1.9048893E3,-4.6700906E2,8.056463E1,-5.776887E2,1.489539E3,-1.4825537E3,-3.7607126E3,7.163458E2,-8.634396E2,2.0173247E2,-1.9739798E2,-1.1947757E2,-5.5103534E2,5.724567E2,-9.055679E1,1.4871803E3,-1.56891E3,-1.0612275E3,-5.6274995E3,1.1771179E3,-8.9990625E2,2.3375557E3,-1.0832374E3,-2.2201077E2,4.168009E2,-3.8019446E2,4.829568E2,-3.2749078E2,2.465217E2,7.247798E1,5.967532E2,-1.8053032E3,-3.2962872E2,-6.6337537E2,3.010416E2,-1.9798976E2,-1.8174769E3,-2.1169236E3,1.4254753E3,5.151202E2,-2.8981138E3,-1.5953225E3,3.517881E3,5.2892227E3,-1.1608683E3,1.0664403E3,-3.753095E2,1.284864E2,8.140309E2,1.6416908E3,-5.7826746E2,-1.9450179E2,1.01059033E3,8.336883E1,-2.2217839E2,-7.2780286E2,-3.8304538E2,1.8564914E2,-3.710653E2,-9.384881E1,4.1347882E2,-1.2230266E3,8.8764244E1,2.9828823E3,3.9275745E2,5.0695735E-1,7.363674E2,-1.4703881E3,-3.2338776E2,-1.3361025E3,1.0303456E3,2.0765989E3,4.7985345E2,3.124321E3,6.1964386E2,-4.361721E2,2.3416052E1,1.0592536E2,9.5373785E2,1.7814404E1,-2.2539586E2,2.3090097E2,-5.8908424E1,5.171118E2,1.0251966E2,3.6644763E2,1.1750573E3,-1.8351598E2,1.8895823E3,-1.0848927E2,9.450107E2,2.1871702E3,2.7172147E2],"categories":[],"categories_nodes":[],"categories_segments":[],"categories_sizes":[],"default_left":[0,0,0,0,0,0,0,0,0,0,0,0,0,0,0,0,0,0,0,0,0,0,0,0,0,0,0,0,0,0,0,0,0,0,0,0,0,0,0,0,0,0,0,0,0,0,0,0,0,0,0,0,0,0,0,0,0,0,0,0,0,0,0,0,0,0,0,0,0,0,0,0,0,0,0,0,0,0,0,0,0,0,0,0,0,0,0,0,0,0,0,0,0,0,0,0,0],"id":13,"left_children":[1,3,5,7,9,11,13,15,17,19,21,23,25,27,29,31,-1,-1,-1,33,35,37,39,41,43,45,47,49,51,53,55,57,-1,-1,-1,59,61,-1,63,-1,-1,65,67,69,71,73,75,77,79,81,83,85,87,89,91,93,95,-1,-1,-1,-1,-1,-1,-1,-1,-1,-1,-1,-1,-1,-1,-1,-1,-1,-1,-1,-1,-1,-1,-1,-1,-1,-1,-1,-1,-1,-1,-1,-1,-1,-1,-1,-1,-1,-1,-1,-1],"loss_changes":[3.271204E8,6.2336096E7,3.4173357E8,1.9479914E7,7.750528E7,6.0155866E8,3.4812397E8,1.0742248E7,5.075805E6,2.4901344E7,8.977584E7,2.408604E8,6.779612E8,6.5607366E8,3.904456E8,3.2058942E6,0E0,0E0,0E0,1.3952705E6,2.459928E7,1.4765456E7,1.9539552E7,2.083606E8,2.0507405E8,2.934209E8,4.5087488E8,4.791837E8,5.4676256E8,9.9173875E8,2.379007E8,3.4569475E6,0E0,0E0,0E0,2.0520896E7,1.3672844E7,0E0,3.7375345E6,0E0,0E0,8.632266E7,2.1874675E8,4.2813796E7,1.0409952E8,2.3095053E8,3.0238502E8,1.6023418E8,3.228667E8,3.877084E8,3.542367E8,5.7668966E8,8.621249E8,2.0649645E8,5.223824E8,1.6435824E8,2.3966413E8,0E0,0E0,0E0,0E0,0E0,0E0,0E0,0E0,0E0,0E0,0E0,0E0,0E0,0E0,0E0,0E0,0E0,0E0,0E0,0E0,0E0,0E0,0E0,0E0,0E0,0E0,0E0,0E0,0E0,0E0,0E0,0E0,0E0,0E0,0E0,0E0,0E0,0E0,0E0,0E0],"parents":[2147483647,0,0,1,1,2,2,3,3,4,4,5,5,6,6,7,7,8,8,9,9,10,10,11,11,12,12,13,13,14,14,15,15,19,19,20,20,21,21,22,22,23,23,24,24,25,25,26,26,27,27,28,28,29,29,30,30,31,31,35,35,36,36,38,38,41,41,42,42,43,43,44,44,45,45,46,46,47,47,48,48,49,49,50,50,51,51,52,52,53,53,54,54,55,55,56,56],"right_children":[2,4,6,8,10,12,14,16,18,20,22,24,26,28,30,32,-1,-1,-1,34,36,38,40,42,44,46,48,50,52,54,56,58,-1,-1,-1,60,62,-1,64,-1,-1,66,68,70,72,74,76,78,80,82,84,86,88,90,92,94,96,-1,-1,-1,-1,-1,-1,-1,-1,-1,-1,-1,-1,-1,-1,-1,-1,-1,-1,-1,-1,-1,-1,-1,-1,-1,-1,-1,-1,-1,-1,-1,-1,-1,-1,-1,-1,-1,-1,-1,-1],"split_conditions":[1.3E0,4E0,1E0,4.435E3,4.727E3,1E0,1.1E1,2.59E2,6.92E2,2E0,1.2E0,1.7E1,2.59E2,1E0,1E0,5.95E2,-5.5103534E2,5.724567E2,-9.055679E1,1.6E3,5E0,5.371E3,7E0,1.06E2,1.3E1,1.6E0,7.1E1,1E0,4E0,1E0,1E0,1.074E3,2.465217E2,7.247798E1,5.967532E2,2.376E3,5.74E2,-6.6337537E2,8E0,-1.9798976E2,-1.8174769E3,9.24E2,1.4E2,7.25E2,1.9E1,3E0,1.3E1,1E0,3.885E3,3.069E3,3E0,8E0,1.1E1,2.5E0,1.3E1,1.091E3,7E0,8.336883E1,-2.2217839E2,-7.2780286E2,-3.8304538E2,1.8564914E2,-3.710653E2,-9.384881E1,4.1347882E2,-1.2230266E3,8.8764244E1,2.9828823E3,3.9275745E2,5.0695735E-1,7.363674E2,-1.4703881E3,-3.2338776E2,-1.3361025E3,1.0303456E3,2.0765989E3,4.7985345E2,3.124321E3,6.1964386E2,-4.361721E2,2.3416052E1,1.0592536E2,9.5373785E2,1.7814404E1,-2.2539586E2,2.3090097E2,-5.8908424E1,5.171118E2,1.0251966E2,3.6644763E2,1.1750573E3,-1.8351598E2,1.8895823E3,-1.0848927E2,9.450107E2,2.1871702E3,2.7172147E2],"split_indices":[11,13,13,5,5,3,13,10,1,4,11,14,10,3,6,1,0,0,0,5,13,5,0,1,9,11,1,7,4,3,3,5,0,0,0,5,1,0,9,0,0,5,1,1,14,4,14,7,5,5,4,9,14,11,13,10,14,0,0,0,0,0,0,0,0,0,0,0,0,0,0,0,0,0,0,0,0,0,0,0,0,0,0,0,0,0,0,0,0,0,0,0,0,0,0,0,0],"split_type":[0,0,0,0,0,0,0,0,0,0,0,0,0,0,0,0,0,0,0,0,0,0,0,0,0,0,0,0,0,0,0,0,0,0,0,0,0,0,0,0,0,0,0,0,0,0,0,0,0,0,0,0,0,0,0,0,0,0,0,0,0,0,0,0,0,0,0,0,0,0,0,0,0,0,0,0,0,0,0,0,0,0,0,0,0,0,0,0,0,0,0,0,0,0,0,0,0],"sum_hessian":[1.1742E4,1.28E2,1.1614E4,2.3E1,1.05E2,1.28E3,1.0334E4,1.8E1,5E0,8.7E1,1.8E1,3.21E2,9.59E2,7.197E3,3.137E3,1.4E1,4E0,4E0,1E0,2E0,8.5E1,8E0,1E1,2.5E2,7.1E1,6.1E1,8.98E2,2.423E3,4.774E3,2.473E3,6.64E2,1.2E1,2E0,1E0,1E0,7.1E1,1.4E1,4E0,4E0,1E0,9E0,1.7E1,2.33E2,4.2E1,2.9E1,1.4E1,4.7E1,1E1,8.88E2,2.57E2,2.166E3,2.767E3,2.007E3,2.2E2,2.253E3,2.91E2,3.73E2,5E0,7E0,3.1E1,4E1,7E0,7E0,3E0,1E0,9E0,8E0,2E0,2.31E2,3.4E1,8E0,1.3E1,1.6E1,9E0,5E0,1.6E1,3.1E1,3E0,7E0,7.18E2,1.7E2,1.93E2,6.4E1,1.005E3,1.161E3,9.3E2,1.837E3,6.85E2,1.322E3,1.87E2,3.3E1,2.243E3,1E1,2.78E2,1.3E1,5E0,3.68E2],"tree_param":{"num_deleted":"0","num_feature":"15","num_nodes":"97","size_leaf_vector":"1"}},{"base_weights":[2.8369093E0,3.3141864E2,-6.4809586E1,-7.455625E1,8.4424084E2,-3.0695124E1,-1.2004487E3,-1.19964676E2,4.977775E3,1.00001917E3,-7.1627277E2,-4.2727396E2,2.3233755E1,-8.3121967E2,-2.8710205E3,3.8335413E2,-5.666807E2,-1.6710209E3,6.8488516E3,2.9630051E3,7.460405E2,-5.0623853E3,2.6742807E2,-1.20857864E2,-1.9458165E3,-1.9460531E3,4.6201958E1,-1.0839601E3,2.0857876E3,-1.2596328E3,-4.256712E3,1.0964056E3,-1.2859023E3,-1.2624196E3,4.6469205E2,2.9888644E2,-1.0508458E3,2.1860579E3,5.6741986E2,6.6147687E2,7.470481E3,2.296527E3,5.4983777E2,-3.569221E3,-3.0956592E3,1.7555935E3,-1.0628141E3,5.901756E2,-4.4867075E2,-4.3999646E2,-2.743753E3,-2.466923E3,-5.9297833E2,1.3660492E2,-3.060798E2,-1.01755994E3,-5.45918E3,9.992684E2,2.2642402E3,-2.4132869E3,1.9126616E2,-5.767023E3,-1.8882385E3,-7.2379756E0,5.69294E2,-9.281024E1,-8.2141315E2,-2.0526772E2,-9.659177E2,-1.0394904E2,3.5224783E3,-7.440027E2,1.5319834E3,3.9204553E3,1.1215007E3,1.4903384E3,3.2543713E1,3.2898828E2,-6.7437775E1,-1.8575035E3,1.3277905E2,2.3127527E2,2.075598E3,7.464264E2,-7.5727246E2,-6.99985E1,5.102476E2,2.4285466E2,-1.8991017E2,-3.358891E2,1.15611855E2,-4.388843E2,-8.759869E2,-1.0811927E3,-5.5740173E2,1.570972E3,-3.0085043E2,8.410444E0,4.1553235E2,-9.849575E1,2.1642625E3,2.562325E2,-3.612923E2,-1.9392249E3,-5.1740625E2,1.1193288E1,9.901512E2,-9.164111E2,-1.3820802E1,-3.78515E2,1.4912362E3,-1.9823154E3,-4.7790228E2,-1.1726545E3,-1.16798256E2],"categories":[],"categories_nodes":[],"categories_segments":[],"categories_sizes":[],"default_left":[0,0,0,0,0,0,0,0,0,0,0,0,0,0,0,0,0,0,0,0,0,0,0,0,0,0,0,0,0,0,0,0,0,0,0,0,0,0,0,0,0,0,0,0,0,0,0,0,0,0,0,0,0,0,0,0,0,0,0,0,0,0,0,0,0,0,0,0,0,0,0,0,0,0,0,0,0,0,0,0,0,0,0,0,0,0,0,0,0,0,0,0,0,0,0,0,0,0,0,0,0,0,0,0,0,0,0,0,0,0,0,0,0,0,0],"id":14,"left_children":[1,3,5,7,9,11,13,15,17,19,21,23,25,27,29,31,33,35,37,39,41,43,45,47,49,51,53,55,57,59,61,63,65,67,69,-1,-1,-1,-1,71,73,75,77,-1,79,81,83,85,87,89,91,93,95,97,99,101,103,105,-1,107,109,111,113,-1,-1,-1,-1,-1,-1,-1,-1,-1,-1,-1,-1,-1,-1,-1,-1,-1,-1,-1,-1,-1,-1,-1,-1,-1,-1,-1,-1,-1,-1,-1,-1,-1,-1,-1,-1,-1,-1,-1,-1,-1,-1,-1,-1,-1,-1,-1,-1,-1,-1,-1,-1],"loss_changes":[2.6103786E8,4.1748982E8,3.7726874E8,2.5754574E8,2.1609773E8,2.0224589E8,1.7279146E8,2.5001515E8,1.358486E8,3.9962605E8,3.4765107E8,5.2649104E8,3.7663782E8,1.7477634E8,1.0851533E8,6.2391885E8,4.2323302E8,1.8147734E7,3.588864E6,9.494741E8,2.1624723E8,1.648088E8,1.3450043E8,2.2006483E8,2.2708704E8,6.619565E7,2.6214525E8,5.719619E7,1.0520822E8,4.2307468E7,8.569302E7,3.2954435E8,2.2178942E8,3.961561E8,2.1812204E9,0E0,0E0,0E0,0E0,8.784526E8,5.987813E8,4.6705002E8,2.6963066E8,0E0,1.4514901E8,1.5735258E8,1.9309838E8,2.7295488E8,1.503606E8,3.8015052E7,2.3712832E7,4.107744E7,7.215124E7,8.878143E8,2.8350938E8,7.582797E7,1.0988E5,3.7509596E7,0E0,2.1116488E7,8.960646E7,4.561907E7,3.482275E7,0E0,0E0,0E0,0E0,0E0,0E0,0E0,0E0,0E0,0E0,0E0,0E0,0E0,0E0,0E0,0E0,0E0,0E0,0E0,0E0,0E0,0E0,0E0,0E0,0E0,0E0,0E0,0E0,0E0,0E0,0E0,0E0,0E0,0E0,0E0,0E0,0E0,0E0,0E0,0E0,0E0,0E0,0E0,0E0,0E0,0E0,0E0,0E0,0E0,0E0,0E0,0E0],"parents":[2147483647,0,0,1,1,2,2,3,3,4,4,5,5,6,6,7,7,8,8,9,9,10,10,11,11,12,12,13,13,14,14,15,15,16,16,17,17,18,18,19,19,20,20,21,21,22,22,23,23,24,24,25,25,26,26,27,27,28,28,29,29,30,30,31,31,32,32,33,33,34,34,39,39,40,40,41,41,42,42,44,44,45,45,46,46,47,47,48,48,49,49,50,50,51,51,52,52,53,53,54,54,55,55,56,56,57,57,59,59,60,60,61,61,62,62],"right_children":[2,4,6,8,10,12,14,16,18,20,22,24,26,28,30,32,34,36,38,40,42,44,46,48,50,52,54,56,58,60,62,64,66,68,70,-1,-1,-1,-1,72,74,76,78,-1,80,82,84,86,88,90,92,94,96,98,100,102,104,106,-1,108,110,112,114,-1,-1,-1,-1,-1,-1,-1,-1,-1,-1,-1,-1,-1,-1,-1,-1,-1,-1,-1,-1,-1,-1,-1,-1,-1,-1,-1,-1,-1,-1,-1,-1,-1,-1,-1,-1,-1,-1,-1,-1,-1,-1,-1,-1,-1,-1,-1,-1,-1,-1,-1,-1],"split_conditions":[9E0,4.14E2,4.3E1,9E0,5.102E3,1.2E1,7.07E2,2.63E2,7E0,4.31E2,4.02E2,9E0,8.8E1,6.66E2,2E0,4.293E3,3.885E3,1.7E1,3E0,3.929E3,1E0,5.56E2,4E0,1.389E3,1.5E0,2.6E1,6.57E2,5.563E3,1.3E1,2.1E0,2.252E3,5E0,4.1E1,1.8E1,2E0,2.9888644E2,-1.0508458E3,2.1860579E3,5.6741986E2,1.7E0,4.124E3,5E0,3.219E3,-3.569221E3,1.7E1,2E0,5E0,2E0,2.71E2,4E1,2E0,5.31E2,1E0,6.15E2,5.609E3,2E0,4.63E2,4.388E3,2.2642402E3,8.76E2,1.1E1,1.3E1,4.63E2,-7.2379756E0,5.69294E2,-9.281024E1,-8.2141315E2,-2.0526772E2,-9.659177E2,-1.0394904E2,3.5224783E3,-7.440027E2,1.5319834E3,3.9204553E3,1.1215007E3,1.4903384E3,3.2543713E1,3.2898828E2,-6.7437775E1,-1.8575035E3,1.3277905E2,2.3127527E2,2.075598E3,7.464264E2,-7.5727246E2,-6.99985E1,5.102476E2,2.4285466E2,-1.8991017E2,-3.358891E2,1.15611855E2,-4.388843E2,-8.759869E2,-1.0811927E3,-5.5740173E2,1.570972E3,-3.0085043E2,8.410444E0,4.1553235E2,-9.849575E1,2.1642625E3,2.562325E2,-3.612923E2,-1.9392249E3,-5.1740625E2,1.1193288E1,9.901512E2,-9.164111E2,-1.3820802E1,-3.78515E2,1.4912362E3,-1.9823154E3,-4.7790228E2,-1.1726545E3,-1.16798256E2],"split_indices":[14,1,0,2,5,0,10,1,14,10,10,0,1,1,6,5,5,0,4,5,3,1,4,5,11,0,1,5,9,11,5,9,0,0,7,0,0,0,0,11,5,2,5,0,0,4,2,11,10,1,4,10,7,1,5,13,1,5,0,10,13,9,1,0,0,0,0,0,0,0,0,0,0,0,0,0,0,0,0,0,0,0,0,0,0,0,0,0,0,0,0,0,0,0,0,0,0,0,0,0,0,0,0,0,0,0,0,0,0,0,0,0,0,0,0],"split_type":[0,0,0,0,0,0,0,0,0,0,0,0,0,0,0,0,0,0,0,0,0,0,0,0,0,0,0,0,0,0,0,0,0,0,0,0,0,0,0,0,0,0,0,0,0,0,0,0,0,0,0,0,0,0,0,0,0,0,0,0,0,0,0,0,0,0,0,0,0,0,0,0,0,0,0,0,0,0,0,0,0,0,0,0,0,0,0,0,0,0,0,0,0,0,0,0,0,0,0,0,0,0,0,0,0,0,0,0,0,0,0,0,0,0,0],"sum_hessian":[1.1742E4,2.004E3,9.738E3,1.119E3,8.85E2,9.455E3,2.83E2,1.11E3,9E0,8.05E2,8E1,1.131E3,8.324E3,2.33E2,5E1,5.22E2,5.88E2,2E0,7E0,9.1E1,7.14E2,1.4E1,6.6E1,9.42E2,1.89E2,9.5E1,8.229E3,2.15E2,1.8E1,2.4E1,2.6E1,3.66E2,1.56E2,3.51E2,2.37E2,1E0,1E0,6E0,1E0,6.1E1,3E1,7.9E1,6.35E2,2E0,1.2E1,3.1E1,3.5E1,2.97E2,6.45E2,6.6E1,1.23E2,6.8E1,2.7E1,6.549E3,1.68E3,2.13E2,2E0,1.6E1,2E0,1.3E1,1.1E1,1.5E1,1.1E1,1.53E2,2.13E2,9.4E1,6.2E1,2.72E2,7.9E1,2.22E2,1.5E1,3.6E1,2.5E1,1.1E1,1.9E1,3.5E1,4.4E1,3.72E2,2.63E2,6E0,6E0,2.7E1,4E0,1E1,2.5E1,1.71E2,1.26E2,8.2E1,5.63E2,3.6E1,3E1,1.6E1,1.07E2,2.2E1,4.6E1,1E0,2.6E1,6.026E3,5.23E2,1.676E3,4E0,1.9E1,1.94E2,1E0,1E0,1.2E1,4E0,1E1,3E0,9E0,2E0,1.2E1,3E0,4E0,7E0],"tree_param":{"num_deleted":"0","num_feature":"15","num_nodes":"115","size_leaf_vector":"1"}},{"base_weights":[2.5589755E0,-1.7776181E2,8.0649994E1,-3.150656E2,2.219457E2,1.3413563E3,5.9367523E1,-6.0291956E2,4.10001E1,-1.0546564E2,6.380217E2,3.5415374E3,2.1443665E2,3.3843204E2,-3.2850094E1,-1.5539655E3,-4.4113983E2,3.5588565E2,-6.564801E2,3.8086133E2,-6.029533E2,2.5376616E3,1.4019746E2,3.7290002E3,3.884454E1,7.750387E1,1.880758E3,2.091957E2,2.6949841E3,-6.5692114E2,1.0143125E2,-1.6770343E2,-2.1657976E3,3.4676746E2,-8.123277E2,2.189781E2,3.228726E3,-1.5923745E3,-1.9720715E2,6.6105493E2,-1.3189081E2,-8.8136096E2,1.7893884E2,2.3215293E3,2.2582039E3,-2.4957292E3,2.6979846E2,2.9702224E3,-1.3063223E3,3.2949774E2,-1.9713967E3,1.2822649E3,-4.1787502E1,4.6349355E3,-1.6193033E3,-9.5734686E2,2.356943E2,4.5993756E2,-8.34629E1,1.5119319E2,-4.8930545E2,1.5519887E2,-7.851274E2,2.526053E2,-2.112025E2,-3.7059042E2,-4.162725E1,4.8128882E2,-3.747934E1,1.1349382E2,2.0838748E3,-1.4718567E3,-3.12206E2,-1.5493874E1,-1.3672737E3,3.497395E2,-1.13503895E1,-1.0793594E2,3.1858783E2,-1.3613113E2,-6.8783856E2,1.0902938E3,5.0121455E0,1.3412592E3,5.648811E2,5.5172784E2,-8.8101697E2,-1.215298E1,3.462303E2,-6.749076E2,1.5626707E3,8.220131E2,-9.400956E2,-1.1505892E2,2.7253278E2,-9.2057434E2,-2.1855315E2,7.172592E2,2.8996592E1,-4.3497368E1,4.2901376E2,2.112441E3,3.1918839E1,6.7736194E2,-8.2500006E2,-5.5812103E2,-1.9461363E2,7.8131885E2,-1.5730627E2,2.2780135E2,-9.289708E1,2.2895729E2,-4.845821E1],"categories":[],"categories_nodes":[],"categories_segments":[],"categories_sizes":[],"default_left":[0,0,0,0,0,0,0,0,0,0,0,0,0,0,0,0,0,0,0,0,0,0,0,0,0,0,0,0,0,0,0,0,0,0,0,0,0,0,0,0,0,0,0,0,0,0,0,0,0,0,0,0,0,0,0,0,0,0,0,0,0,0,0,0,0,0,0,0,0,0,0,0,0,0,0,0,0,0,0,0,0,0,0,0,0,0,0,0,0,0,0,0,0,0,0,0,0,0,0,0,0,0,0,0,0,0,0,0,0,0,0,0,0],"id":15,"left_children":[1,3,5,7,9,11,13,15,17,19,21,23,25,27,29,31,33,35,37,39,41,43,45,-1,47,49,-1,51,53,55,57,59,61,63,65,67,69,71,73,75,77,79,81,83,-1,85,87,89,91,93,95,97,99,101,103,105,107,109,111,-1,-1,-1,-1,-1,-1,-1,-1,-1,-1,-1,-1,-1,-1,-1,-1,-1,-1,-1,-1,-1,-1,-1,-1,-1,-1,-1,-1,-1,-1,-1,-1,-1,-1,-1,-1,-1,-1,-1,-1,-1,-1,-1,-1,-1,-1,-1,-1,-1,-1,-1,-1,-1,-1],"loss_changes":[1.653726E8,1.9484387E8,2.1979995E8,2.7081632E8,1.2376232E8,3.364427E8,2.0743254E8,2.2410387E8,2.598321E8,1.23377944E8,3.7791894E8,1.4316608E9,7.496173E7,6.091497E8,5.078175E8,1.7944662E8,3.6585875E8,3.198435E8,1.5786379E8,3.7154016E7,5.5014264E7,7.203491E7,1.09308104E8,0E0,1.379486E8,4.7117504E7,0E0,5.1149674E8,8.779342E8,2.8796634E8,3.3060528E8,6.5692092E7,1.7935296E8,2.0927195E8,2.4199571E8,3.7133443E8,3.894418E8,2.1610531E8,1.5717013E8,5.8955E7,2.541282E7,1.1121354E8,3.7497548E7,6.793885E7,0E0,3.407536E7,8.346632E7,1.4026128E8,1.8604342E8,3.3785508E7,1.140126E7,4.7294048E8,2.341313E8,7.839127E8,1.5087819E8,2.2260102E8,4.892546E8,3.9125232E8,2.1763725E8,0E0,0E0,0E0,0E0,0E0,0E0,0E0,0E0,0E0,0E0,0E0,0E0,0E0,0E0,0E0,0E0,0E0,0E0,0E0,0E0,0E0,0E0,0E0,0E0,0E0,0E0,0E0,0E0,0E0,0E0,0E0,0E0,0E0,0E0,0E0,0E0,0E0,0E0,0E0,0E0,0E0,0E0,0E0,0E0,0E0,0E0,0E0,0E0,0E0,0E0,0E0,0E0,0E0,0E0],"parents":[2147483647,0,0,1,1,2,2,3,3,4,4,5,5,6,6,7,7,8,8,9,9,10,10,11,11,12,12,13,13,14,14,15,15,16,16,17,17,18,18,19,19,20,20,21,21,22,22,24,24,25,25,27,27,28,28,29,29,30,30,31,31,32,32,33,33,34,34,35,35,36,36,37,37,38,38,39,39,40,40,41,41,42,42,43,43,45,45,46,46,47,47,48,48,49,49,50,50,51,51,52,52,53,53,54,54,55,55,56,56,57,57,58,58],"right_children":[2,4,6,8,10,12,14,16,18,20,22,24,26,28,30,32,34,36,38,40,42,44,46,-1,48,50,-1,52,54,56,58,60,62,64,66,68,70,72,74,76,78,80,82,84,-1,86,88,90,92,94,96,98,100,102,104,106,108,110,112,-1,-1,-1,-1,-1,-1,-1,-1,-1,-1,-1,-1,-1,-1,-1,-1,-1,-1,-1,-1,-1,-1,-1,-1,-1,-1,-1,-1,-1,-1,-1,-1,-1,-1,-1,-1,-1,-1,-1,-1,-1,-1,-1,-1,-1,-1,-1,-1,-1,-1,-1,-1,-1,-1],"split_conditions":[1.7E0,1E0,2E0,2.416E3,4E0,1.3E1,2.34E2,2.21E2,4.888E3,1.996E3,6E0,5E0,1.5E1,2.21E2,3.83E2,5.56E2,3.29E2,7.75E2,7E0,2.59E2,6.39E2,7.34E2,8.8E1,3.7290002E3,1.3E1,2E0,1.880758E3,3.64E2,5E0,2.3E0,1.771E3,5E0,3E0,6.39E2,5E0,1.06E2,3.764E3,1E0,5.609E3,1.8E1,1.586E3,2.59E2,8E0,1.3E1,2.2582039E3,9E0,6.5E2,1E0,1.47E2,9.61E2,2E0,1.4E1,2E0,1.5E1,1E0,1.3E1,3.2E2,1E1,1E0,1.5119319E2,-4.8930545E2,1.5519887E2,-7.851274E2,2.526053E2,-2.112025E2,-3.7059042E2,-4.162725E1,4.8128882E2,-3.747934E1,1.1349382E2,2.0838748E3,-1.4718567E3,-3.12206E2,-1.5493874E1,-1.3672737E3,3.497395E2,-1.13503895E1,-1.0793594E2,3.1858783E2,-1.3613113E2,-6.8783856E2,1.0902938E3,5.0121455E0,1.3412592E3,5.648811E2,5.5172784E2,-8.8101697E2,-1.215298E1,3.462303E2,-6.749076E2,1.5626707E3,8.220131E2,-9.400956E2,-1.1505892E2,2.7253278E2,-9.2057434E2,-2.1855315E2,7.172592E2,2.8996592E1,-4.3497368E1,4.2901376E2,2.112441E3,3.1918839E1,6.7736194E2,-8.2500006E2,-5.5812103E2,-1.9461363E2,7.8131885E2,-1.5730627E2,2.2780135E2,-9.289708E1,2.2895729E2,-4.845821E1],"split_indices":[11,6,2,5,2,14,1,1,5,5,2,13,9,1,1,5,1,1,9,10,10,1,1,0,0,7,0,10,13,11,5,2,13,10,13,1,5,13,5,14,5,10,14,0,0,14,10,7,1,5,6,14,7,14,3,0,1,13,7,0,0,0,0,0,0,0,0,0,0,0,0,0,0,0,0,0,0,0,0,0,0,0,0,0,0,0,0,0,0,0,0,0,0,0,0,0,0,0,0,0,0,0,0,0,0,0,0,0,0,0,0,0,0],"split_type":[0,0,0,0,0,0,0,0,0,0,0,0,0,0,0,0,0,0,0,0,0,0,0,0,0,0,0,0,0,0,0,0,0,0,0,0,0,0,0,0,0,0,0,0,0,0,0,0,0,0,0,0,0,0,0,0,0,0,0,0,0,0,0,0,0,0,0,0,0,0,0,0,0,0,0,0,0,0,0,0,0,0,0,0,0,0,0,0,0,0,0,0,0,0,0,0,0,0,0,0,0,0,0,0,0,0,0,0,0,0,0,0,0],"sum_hessian":[1.1742E4,3.548E3,8.194E3,2.641E3,9.07E2,1.35E2,8.059E3,1.46E3,1.181E3,5.08E2,3.99E2,4.5E1,9E1,2.001E3,6.058E3,2.11E2,1.249E3,8.14E2,3.67E2,2.57E2,2.51E2,8.2E1,3.17E2,1.2E1,3.3E1,8.9E1,1E0,1.898E3,1.03E2,1.072E3,4.986E3,6.5E1,1.46E2,4E2,8.49E2,7.78E2,3.6E1,1.2E2,2.47E2,1.66E2,9.1E1,1.85E2,6.6E1,8E1,2E0,1.4E1,3.03E2,1E1,2.3E1,8E1,9E0,3.59E2,1.539E3,7.1E1,3.2E1,8.02E2,2.7E2,1.696E3,3.29E3,4.5E1,2E1,2.1E1,1.25E2,2.72E2,1.28E2,5.21E2,3.28E2,1.54E2,6.24E2,2.1E1,1.5E1,1.6E1,1.04E2,2.4E2,7E0,9.6E1,7E1,7.7E1,